tree
version=v4
num_class=1
num_tree_per_iteration=1
label_index=0
max_feature_idx=61
objective=binary sigmoid:1
feature_names=curr_trx_count curr_trx_days_active curr_trx_event_types recent_trx_count recent_trx_days_active recent_trx_event_types recent_trx_months_active recent_morning_ratio recent_evening_ratio recent_weekend_ratio curr_vs_recent_ratio dialog_count dialog_months dialog_emb_norm dialog_emb_0 dialog_emb_1 dialog_emb_2 dialog_emb_3 dialog_emb_4 dialog_emb_5 dialog_emb_6 dialog_emb_7 dialog_emb_8 dialog_emb_9 geo_count geo_geohash_4_unique geo_geohash_5_unique geo_geohash_6_unique geo_geohash_4_concentration geo_geohash_5_concentration geo_geohash_6_concentration trend_count_slope trend_sum_slope trend_count_r2 trend_sum_r2 momentum_count_1m momentum_sum_1m momentum_count_2m momentum_sum_2m acceleration_count volatility_count volatility_sum cv_count cv_sum stability_count stability_sum max_drawdown_count max_drawdown_sum recovery_count recovery_sum skewness_count kurtosis_count autocorr_count geo_morning_ratio geo_evening_ratio geo_night_ratio geo_weekend_ratio geo_hour_std geo_months_active geo_diversity_ratio geo_mobility geo_entropy
feature_infos=[0:32132] [0:31] [0:23] [0:90245] [0:31] [0:29] [0:3] [0:1] [0:1] [0:1] [0:2.9154929578375026] [0:46] [0:3] [0:22.13241] [-0.31951466000000001:0.78957239999999995] [-0.65824459999999996:0.39991660000000001] [-0.25361299999999998:0.9101224] [-0.97907469999999996:0.98056869999999996] [-0.74590564000000004:0.37243809999999999] [-0.27990495999999998:0.99144849999999995] [-0.39358187:0.78233032999999996] [-0.39922854000000002:0.79381440000000003] [-0.98280065999999999:0.38567986999999998] [-0.53911770000000003:0.93307379999999995] [0:14868] [0:334] [0:728] [0:1410] [0:1] [0:1] [0:1] [-1.9611650485398813:1.9047619047528344] [-1.9999999985602923:1.9999999883986856] [0:1] [0:1] [-0.9901960784304018:120.9999999879] [-1:172394256] [-0.99275362318768645:234.99999997649999] [-1:941692864] [-5.0999999999234999:2.9302325581327202] [0:60.916666660609721] [0:119042984] [0:1.3545678999549482] [0:1.4142134189605713] [0:1] [0:0.99999260902404796] [0:0.99275362318768645] [0:1] [0:0.99999999999998601] [0:1] [-0.70710678118657755:0.70710678118657766] [-1.500000000000014:0] [-1:1] [0:1] [0:1] [0:1] [0:1] [0:15.556349186104043] [0:3] [0:0.99999999999333322] [0:242.66666665857775] [0:6.0209394740149396]
tree_sizes=3393 3432 3416 3440 3449 3442 3449 3454 3455 3468 3464 3462 3468 3468 3480 3462 3469 3458 3477 3483 3478 3480 3468 3463 3490 3462 3457 3485 3490 3492 3481 3502 3459 3464 3481 3465 3463 3465 3483 3500 3489 3457 3468 3452 3447 3478 3483 3432 3475 3494 3478 3509 3499 3464 3493 3469 3468 3492 3477 3489 3461 3479 3529 3445 3487 3490 3502 3465 3475 3494 3491 3467 3518 3464 3459 3459 3487 3469 3472 3445 3471 3510 3474 3496 3510 3459 3512 3485 3455 3487 3482 3486 3472 3503 3509 3490 3486 3461 3459 3447 3453 3470 3452 3460 3447 3444 3482 3455 3461 3488 3466 3447 3496 3456 3506 3469 3463 3482 3450 3435 3454 3446 3481 3454 3446 3480 3478 3465 3478 3446 3473 3453 3433 3471 3423 3425 3433 3500 3422 3461 3464 3452 3474 3458 3450 3456 3463 3452 3444 3437 3475 3459 3487 3461 3463 3445 3455 3439 3468 3439 3426 3457 3480 3507 3468 3427 3468 3438 3448 3483 3444 3486 3469 3464 3452 3437 3456 3452 3439 3442 3470 3469 3474 3458 3492 3471 3470 3476 3499 3436 3482 3438 3457 3474 3434 3449 3478 3468 3473 3444 3438 3495 3437 3420 3471 3452 3465 3465 3434 3453 3448 3438 3447 3458 3458 3441 3475 3452 3472 3459 3432 3478 3468 3443 3449 3465 3460 3461 3447 3462 3446 3453 3468 3475 3415 3485 3441 3405 3503 3468 3449 3427 3430 3446 3442 3472 3496 3482 3458 3460 3430 3428 3438 3423 3469 3480 3490 3436 3482 3472 3439 3458 3490 3456 3444 3417 3462 3445 3473 3478 3454 3443 3418 3448 3433 3461 3482 3432 3476 3481 3456 3459 3470 3454 3437 3435 3438 3435 3484 3433 3447 3455 3452 3456 3453 3457 3449 3452 3450 3455 3467 3465 3470 3463 3456 3473 3459 3440 3492 3462 3447 3475 3465 3470 3462 3436 3451 3454 3453 3428 3502 3480 3448 3466 3481 3447 3442 3484 3476 3484 3446 3469 3459 3453 3485 3464 3462 3461 3478 3451 3440 3438 3448 3457 3451 3435 3484 3424 3458 3447 3412 3478 3471 3475 3476 3464 3448 3468 3467 3446 3499 3456 3461 3447 3457 3479 3445 3478 3438 3472 3443 3445 3440 3415 3459 3465 3451 3435 3490 3513 3420 3432 3490 3426 3484 3458 3470 3471 3459 3452 3445 3475 3422 3451 3452 3450 3463 3448 3466 3496 3469 3437 3441 3470 3449 3470 3457 3459 3459 3437 3482 3444 3442 3494 3459 3435 3451 3433 3450 3457 3457 3451 3447 3435 3450 3437 3437 3459 3447 3459 3429 3474 3471 3431 3484 3475 3484 3462 3502 3465 3455 3479 3447 3429 3461 3446 3472 3447 3452 3460 3499 3460 3491 3459 3484 3437 3442 3446 3475 3450 3459 3442 3471 3480 3470 3506 3451 3436 3461 3437 3487 3434 3463 3440 3417 3421 3426 3427 3443 3433 3427 3427 3442 3479 3473 3479 3483 3471 3487 3498 3412 3450 3438 3462 3418 3455 3447 3456 3457 3436

Tree=0
num_leaves=31
num_cat=0
split_feature=1 10 10 1 8 46 5 41 39 44 5 1 8 6 5 6 46 8 1 44 1 46 38 46 31 3 8 5 31 42
split_gain=335569 36854.7 35953.3 17300.5 7021.98 4789.44 3210.67 4198.72 2509.36 1401.65 1380.49 1358.97 1312.52 1287.32 1365.49 1182.56 1152.48 1142.84 983.769 930.928 833.202 824.258 789.52 632.072 603.381 556.414 501.363 477.695 465.004 453.638
threshold=2.5000000000000004 0.25000000000364581 0.64285714286823981 6.5000000000000009 0.15310718882147453 0.67455869991475226 2.5000000000000004 0.0066328421235084005 -1.710989010972825 0.60653870359857798 2.5000000000000004 1.5000000000000002 0.14897788902795159 2.5000000000000004 4.5000000000000009 2.5000000000000004 0.41666666666406255 0.037123169681309152 1.5000000000000002 0.79837226066268829 4.5000000000000009 0.81818181817623981 143.01652526855472 0.74999999999218769 -0.59934210524476395 39.500000000000007 0.095311355311355275 2.5000000000000004 -0.35618255395578219 0.3609397813491278
decision_type=2 2 2 2 2 2 2 2 2 2 2 2 2 2 2 2 2 2 2 2 2 2 2 2 2 2 2 2 2 2
left_child=1 9 5 4 13 17 7 11 -5 -1 -6 -3 24 -4 -15 19 22 -2 -9 -10 -12 -7 25 -20 -8 26 -17 -11 -18 -19
right_child=2 6 3 8 10 21 12 18 15 27 20 -13 -14 14 -16 16 28 29 23 -21 -22 -23 -24 -25 -26 -27 -28 -29 -30 -31
leaf_value=-1.7894730041423557 -2.1650018875920241 -1.9191125358366823 -2.1083831799624861 -1.9870071026459222 -2.1636779035006124 -1.9272347678888413 -1.8884098971123116 -2.029522266997529 -2.2435642752517353 -1.8535612860403508 -1.9689037660767343 -2.0265221239088378 -1.8607613088462505 -2.2370194808903507 -2.0777102597020716 -2.3063853852100644 -2.1547680724200453 -2.0822281228677757 -2.1228032363779157 -1.9507042402127373 -2.0774108982723387 -1.8096515562943571 -2.154664378006256 -1.9530202174385793 -2.0156553646227233 -2.3208705553363855 -2.2457441654531127 -1.8011064949177809 -2.2644668427923742 -1.9779012962716171
leaf_weight=6497.8010707721114 237.12078002840281 1076.6978529319167 278.93493770062923 64.154569007456303 187.7022849842906 426.78015294671059 137.25972267240286 859.81413786113262 82.417705155909061 1388.2819566428661 447.00032912939787 405.35232330858707 616.8417771756649 1633.9562942236662 146.57312578707933 1043.8997778072953 109.30207899212837 198.87186390906572 660.98165890574455 40.454782068729401 292.81054137647152 229.02520195394754 79.932096675038338 59.774653248488903 289.99558592587709 5003.2404443174601 506.08823275566101 631.44476891309023 831.50841148942709 218.87588194012642
leaf_count=13306 2085 4712 2169 359 1646 1930 525 5468 841 4441 2356 2556 2053 16481 1059 11830 941 1453 5311 200 2114 552 688 298 1772 58001 5184 1425 8797 1189
internal_value=-2.04028 -1.8601 -2.22892 -2.25906 -2.15681 -1.98168 -1.98314 -2.00895 -2.29842 -1.80078 -2.04258 -1.94849 -1.90742 -2.20826 -2.22391 -2.30101 -2.30351 -2.07733 -2.06564 -2.14714 -2.01185 -1.88617 -2.31086 -2.10872 -1.97478 -2.31276 -2.28659 -1.83716 -2.25172 -2.02757
internal_weight=24682.9 12624.2 12058.6 10748 2986.98 1310.67 4106.72 3062.62 7761 8517.53 927.513 1482.05 1044.1 2059.46 1780.53 7696.84 7573.97 654.869 1580.57 122.872 739.811 655.805 6633.16 720.756 427.255 6553.23 1549.99 2019.73 940.81 417.748
internal_count=161742 41867 119875 112666 25825 7209 22695 18345 86841 19172 6116 7268 4350 19709 17540 86482 85441 4727 11077 1041 4470 2482 75703 5609 2297 75015 17014 5866 9738 2642
is_linear=0
shrinkage=1


Tree=1
num_leaves=31
num_cat=0
split_feature=1 10 10 1 8 8 4 39 46 31 1 5 4 5 8 10 44 8 40 50 1 31 56 10 5 34 42 43 40 10
split_gain=170443 19559.1 18499.6 6797.27 2820.59 2405.07 2635.27 1892.14 1660.76 1612.58 1091.57 921.955 1272.75 814.469 786.887 746.164 702.008 517.695 489.521 430.692 402.685 378.084 372.974 341.141 322.493 335.783 319.741 308.201 267.554 267.485
threshold=3.5000000000000004 0.63284029209971282 0.40000000000466668 6.5000000000000009 0.10721127531472356 0.27257053291536054 2.5000000000000004 -1.4999999999941547 0.65358974358805078 -0.46132478631920465 11.500000000000002 3.5000000000000004 4.5000000000000009 2.5000000000000004 0.14263110307414104 0.70212765959451129 0.56252594687493318 0.015408357075023653 1.3749999999085938 -0.42120366240817791 5.5000000000000009 -0.35618255395578219 0.24448499594484993 0.40000000000466668 3.5000000000000004 0.999999999990834 0.57142857142244907 0.53165888786315929 2.9166669079927494e-11 0.18750000000361333
decision_type=2 2 2 2 2 2 2 2 2 2 2 2 2 2 2 2 2 2 2 2 2 2 2 2 2 2 2 2 2 2
left_child=2 8 16 4 24 6 -4 26 17 -8 14 12 -11 -6 21 -12 -1 -2 -17 -20 -15 -9 -14 -10 25 -3 -5 28 -16 -18
right_child=1 3 5 7 13 -7 9 10 23 11 15 -13 22 20 27 18 29 -19 19 -21 -22 -23 -24 -25 -26 -27 -28 -29 -30 -31
leaf_value=0.31800343207279802 0.0656255504526332 0.020982066780715781 0.26246126407457671 0.13038627107048845 0.049313922526783474 0.26632929271509603 0.2278686698809417 0.12307670776533144 0.3071634091998261 0.1840670970944572 0.090007726499446453 0.23611897372723059 0.13585159775914493 0.2020542233038575 0.1867263399097131 -0.034347263192724568 0.29957330857327491 0.18254173478670754 0.19519971573254594 -0.0059028684599626343 0.11570994278768268 -0.010514669084948381 0.086507125220737599 0.23774407727483993 0.093944205820980342 0.11134660618589316 0.30978604134031884 0.091595161191168228 0.0057108188274139493 0.26765549677254097
leaf_weight=9306.1273615136743 129.37230246514082 1022.1004223152995 945.32047114521265 73.615160264074802 144.89386071264744 1233.1141254007816 888.65071337670088 54.833443440496922 344.1484040170908 1038.2334081232548 128.22056213766336 284.77274657785892 805.59418747574091 517.90698033571243 22.231568537652493 5120.168095253408 3033.8939875215292 353.09322870522738 43.102247700095177 69.639710158109665 182.65557131916285 1552.4986412227154 729.93141558766365 364.32785227149725 239.21429403871298 114.2982055619359 37.482919044792652 347.29514936357737 249.63745857775211 837.6354503184557
leaf_count=13057 1119 10314 3111 511 1314 4152 3717 407 694 5755 1127 1234 5698 2652 138 60613 6041 1975 310 754 1297 17346 5816 1393 1942 840 113 3081 2647 2574
internal_value=0.186998 0.03128 0.277565 0.00829379 0.0853512 0.20419 0.187861 -0.0139371 0.22274 0.169041 -0.0169366 0.150752 0.141307 0.157224 0.0124914 -0.0291581 0.31056 0.151191 -0.032078 0.0709804 0.179542 -0.00595726 0.112395 0.271465 0.0411782 0.0300709 0.190913 0.0603837 0.020513 0.292668
internal_weight=30214 11110.7 19103.3 9919.79 2221.07 5925.62 4692.5 7698.72 1190.94 3747.18 7587.63 2858.53 2573.76 845.456 2226.5 5361.13 13177.7 482.466 5232.91 112.742 700.563 1607.33 1535.53 708.476 1375.61 1136.4 111.098 619.164 271.869 3871.53
internal_count=161742 110587 51155 105406 18359 29483 25331 87047 5181 22220 86423 18503 17269 5263 23619 62804 21672 3094 61677 1064 3949 17753 11514 2087 13096 11154 624 5866 2785 8615
is_linear=0
shrinkage=0.05


Tree=2
num_leaves=31
num_cat=0
split_feature=1 10 10 1 8 0 8 39 5 10 39 4 5 10 6 1 40 31 39 4 5 50 8 7 31 4 5 9 46 6
split_gain=107624 13725.5 12506.1 3034.47 1988.22 1862.14 2207.9 956.717 947.287 824.406 726.501 725.816 1071.68 641.004 510.17 407.201 399.677 390.21 405.336 372.455 350.971 327.647 324.89 295.024 291.915 290.988 299.814 286.087 273.176 271.348
threshold=4.5000000000000009 0.40000000000466668 0.63284029209971282 11.500000000000002 0.13210380191512269 2.5000000000000004 0.034568111983612107 -1.3324420677277096 2.5000000000000004 0.51724137932357328 -1.710989010972825 2.5000000000000004 2.5000000000000004 0.70212765959451129 2.5000000000000004 5.5000000000000009 1.3749999999085938 -0.35618255395578219 -2.1364285713794575 1.5000000000000002 2.5000000000000004 0.13506152278473937 0.14263110307414104 0.31588084795321641 -0.46132478631920465 4.5000000000000009 1.5000000000000002 0.42526595744680856 0.81818181817623981 2.5000000000000004
decision_type=2 2 2 2 2 2 2 2 2 2 2 2 2 2 2 2 2 2 2 2 2 2 2 2 2 2 2 2 2 2
left_child=1 19 9 4 17 11 14 -5 23 -2 -6 -3 25 -9 -7 20 -15 27 -19 -1 -12 -18 -14 -8 -16 26 -13 -4 -17 -20
right_child=2 5 3 7 10 6 8 13 -10 -11 15 12 22 16 24 28 21 18 29 -21 -22 -23 -24 -25 -26 -27 -28 -29 -30 -31
leaf_value=0.24456548140706827 0.21645984535673346 0.20804062071501989 0.072084874630728296 0.15500035842561793 0.24927372647735707 0.14052165027884955 0.13534384606655603 0.078748236637118774 0.18921074559149365 0.12782596253947601 -0.014719825848124349 0.14553996881403614 0.16912165734968762 -0.033837777751355338 0.15031179781791215 0.056254263884098543 0.12958899468799409 0.20760326760057302 0.074674260213347762 0.22944444116527785 0.15414722307243034 -0.044210477335873057 0.22699139594120218 0.040729355650282878 0.059478346135274689 0.12861041206619567 0.19099485521218068 0.32541050648712266 0.27176458634348066 -0.0025233067135636876
leaf_weight=8771.2888458967209 614.61586436629295 1326.1731920093298 84.00470707565546 71.725524954497814 63.911824345588684 297.89584416896105 188.83355804532766 134.81029101461172 1193.6680135428905 457.7356678918004 35.651024520397186 1001.597727432847 368.9176854789257 4966.2462686896324 96.556880012154579 870.43573939055204 68.755143314599991 24.050591252744198 119.78826101124287 7601.8442268520594 224.72205463796854 44.778256341814995 707.96741373091936 146.1660215780139 1053.7000017240644 1116.0299331396818 568.77404390275478 12.849772453308104 14.957066707313059 2288.7123480886221
leaf_count=9554 1499 3552 646 416 200 1679 1140 1104 4260 2517 346 4613 1532 60500 467 7546 501 104 922 12314 1100 520 1482 1186 8913 6320 2129 40 64 24576
internal_value=0.15451 0.211245 0.0171964 -0.0019839 0.0324886 0.15786 0.126448 -0.0263667 0.168359 0.178626 0.0852108 0.176233 0.165024 -0.0288614 0.082206 0.0760592 -0.0317172 0.00727439 0.00335572 0.237545 0.131025 0.0610414 0.207166 0.0940619 0.0671032 0.148131 0.162003 0.105694 0.0598949 0.00131616
internal_weight=34537.2 24439.4 10097.8 9025.4 3739.08 8066.28 2976.82 5286.32 1528.67 1072.35 1209.68 5089.46 3763.29 5214.59 1448.15 1145.77 5079.78 2529.41 2432.55 16373.1 260.373 113.533 1076.89 335 1150.26 2686.4 1570.37 96.8545 885.393 2408.5
internal_count=161742 59141 102601 98585 35544 37273 17645 63041 6586 4016 9256 19628 16076 62625 11059 9056 61521 26288 25602 21868 1446 1021 3014 2326 9380 13062 6742 686 7610 25498
is_linear=0
shrinkage=0.05


Tree=3
num_leaves=31
num_cat=0
split_feature=0 10 10 3 8 42 8 0 40 31 10 41 39 34 10 42 8 0 10 41 31 44 8 42 50 27 42 41 32 0
split_gain=75816.1 10656.6 8253.81 3238.32 1710.02 1268.13 1204.29 1712.08 1156.46 671.036 481.8 452.986 449.662 416.604 408.797 403.725 393.943 357.428 329.849 310.992 307.975 306.351 286.268 270.598 237.861 222.323 199.435 191.763 193.616 186.398
threshold=4.5000000000000009 0.70212765959451129 0.40000000000466668 35.500000000000007 0.086434175608630412 0.36421567953648831 0.27257053291536054 1.5000000000000002 1.1458333333095707 -0.41991253644044496 0.87096774195819471 0.0066328421235084005 -1.8424317617623331 0.999999999990834 1.2890625000407032 0.31933854633999403 0.11690930037704227 5.5000000000000009 1.6363636363847112 0.093184359371662112 -0.2812499999978027 0.60653870359857798 0.32058249721293203 0.54433105393820924 0.49220842833071682 2.5000000000000004 0.48808518396767825 269.56788635253912 -1.0209621011763499 2.5000000000000004
decision_type=2 2 2 2 2 2 2 2 2 2 2 2 2 2 2 2 2 2 2 2 2 2 2 2 2 2 2 2 2 2
left_child=2 5 21 4 13 22 7 19 10 -9 15 -11 -6 20 -15 -5 29 -14 26 -4 -3 -1 -2 24 -7 27 -10 28 -19 -13
right_child=1 3 6 8 12 23 -8 9 18 11 -12 16 17 14 -16 -17 -18 25 -20 -21 -22 -23 -24 -25 -26 -27 -28 -29 -30 -31
leaf_value=0.19882672212833891 0.065857018427521383 0.091342681573626572 0.16912985401194058 -0.010076018139188939 0.21753386195118971 0.16214592418998439 0.17091074169939158 0.15079367211846745 0.056902031868142966 0.12576361976488057 -0.038369186903230872 0.09265222068036591 0.11876347791591185 0.17424512845666576 0.0045972649109662245 0.10014510791557224 0.12352745979324593 0.1973463695046542 -0.020851723541652701 0.13436619599620145 -0.0052949252548727269 0.18425168836745809 0.16480401612240461 0.19658839133395556 0.088180889476113217 0.03763994487265053 0.18477886155701417 0.22618581985548483 0.06738207876710102 0.060591643580815868
leaf_weight=13972.745867595077 574.43616528809071 86.459057614207268 1732.7532567083836 954.81400712579489 54.8283536657691 481.80167699605227 1919.2362057417631 661.63149817287922 47.64637354016304 902.29624069482088 4249.6250959709287 764.73990529030561 309.74466727674007 69.863095790147781 72.216010794043541 90.997880391776562 501.51112372428179 30.821996070444584 42.869572065770626 1023.2467918694019 1775.69625236094 4859.0379962772131 83.756419338285923 443.0631772428751 140.36093756556511 599.69963269680738 84.676971957087517 22.496626287698746 407.99914957582951 1113.4061256274581
leaf_count=14005 4118 670 4341 11265 130 1398 4961 2407 401 3986 53438 4324 1543 327 639 690 2220 142 483 4184 19039 7816 397 734 777 5067 331 93 3220 8596
internal_value=0.132625 0.0192101 0.176518 -0.00282561 0.035264 0.133011 0.135991 0.125988 -0.026706 0.104857 -0.0308874 0.0955968 0.0771252 0.00548864 0.0880165 -0.00048549 0.0841585 0.071509 0.0996832 0.156223 -0.000808083 0.195066 0.0784482 0.166726 0.145459 0.057714 0.138734 0.0838096 0.0765105 0.073646
internal_weight=38074.5 10623.9 27450.6 8900.45 3429.82 1723.42 8618.82 6699.58 5470.63 3943.58 5295.44 3281.95 1425.59 2004.23 142.079 1045.81 2379.66 1370.76 175.193 2756 1862.16 18831.8 658.193 1065.23 622.163 1061.02 132.323 461.318 438.821 1878.15
internal_count=161742 104902 56840 97478 30870 7424 35019 30058 66608 21533 65393 19126 10195 20675 966 11955 15140 10065 1215 8525 19709 21821 4515 2909 2175 8522 732 3455 3362 12920
is_linear=0
shrinkage=0.05


Tree=4
num_leaves=31
num_cat=0
split_feature=0 10 10 1 0 8 8 10 42 8 0 48 34 39 31 31 10 51 45 10 31 41 45 41 47 34 55 8 39 37
split_gain=57014.9 7752.75 7503.53 1858.91 1417.57 1216.38 1002.6 892.33 707.803 677.053 848.089 426.293 405.085 334.385 310.542 301.439 274.558 258.442 240.689 227.009 219.918 216.831 216.775 214.34 325.959 209.283 203.56 196.889 194.375 194.118
threshold=5.5000000000000009 0.40000000000466668 0.70212765959451129 11.500000000000002 3.5000000000000004 0.033403068340306805 0.13210380191512269 0.57692307693731526 0.37892658618302127 0.22504612546125463 1.5000000000000002 0.8830369357008917 0.999999999990834 -1.710989010972825 -0.38241153034868169 -0.3743421052488986 0.18750000000361333 -1.0000000180025095e-35 0.53065806627273571 0.67741935485637372 0.28021978021908739 0.082245327532291412 0.65313297510147106 0.0099107399582862524 0.87078869342803966 0.999999999990834 1.0000000180025095e-35 0.42059783414923607 -2.1364285713794575 -1.0000000180025095e-35
decision_type=2 2 2 2 2 2 2 2 2 2 2 2 2 2 2 2 2 2 2 2 2 2 2 2 2 2 2 2 2 2
left_child=1 16 7 6 9 25 15 -2 12 10 18 -10 -5 -8 -12 -4 20 22 -3 -7 -1 -20 -15 -16 -25 -6 -27 29 -17 -9
right_child=2 4 3 8 5 19 13 27 11 -11 14 -13 -14 17 23 28 -18 -19 21 -21 -22 -23 -24 24 -26 26 -28 -29 -30 -31
leaf_value=0.16988249751941994 0.14458530112217735 0.15280467209743875 0.12441170887073155 -0.03507426294292864 0.027887489464877693 0.14585967486737303 0.17195206625092332 0.053441826351578771 0.1241356558210375 0.14833958172845779 0.12681177818241374 0.006145411621691581 0.2148563824234811 0.064997878555593969 0.11135728502725317 0.14953765176231448 0.14813099579044228 0.13125508430310875 0.13679322044329936 0.098463904896166202 0.14551308316186498 0.10137280366935825 0.015678603054386429 0.064568568325802878 0.11288342628047657 0.14534865273913578 0.03000250321535651 0.16499695424016927 -0.0033893734303234399 0.18375323287237644
leaf_weight=18206.043601006269 882.70849714428186 1113.6108591407537 48.36210024356842 4427.3847484961152 842.08215896785259 349.83462212234735 62.870727472007275 577.80988672375679 96.726394966244698 2086.4839884340763 679.04147392511368 367.02855536341667 16.271992690861225 550.58376454561949 719.60512416809797 20.989126153290272 1782.9852294027805 95.941370144486427 1137.2124764025211 909.35270494967699 975.38556772470474 696.81547392904758 374.24299784749746 1189.0198013484478 494.18543250858784 81.700677864253521 71.920103773474693 48.076277121901512 2069.177797883749 30.065699733793736
leaf_count=17183 2182 2677 247 57309 7141 1006 141 3961 533 4779 2368 3965 83 3962 2841 72 3216 503 2751 4156 1558 2825 3329 7237 2441 343 458 174 22224 77
internal_value=0.116657 0.149406 0.0105122 -0.0086509 0.114046 0.0789757 0.0208556 0.111762 -0.0280246 0.12379 0.115295 0.0307549 -0.0341591 0.0600365 0.0969555 0.00100174 0.166899 0.0531435 0.134469 0.111632 0.168643 0.123336 0.0450402 0.088518 0.0787537 0.0376783 0.0913474 0.0675908 -0.0018537 0.0598871
internal_weight=41003.5 31335.3 9668.24 8129.58 10370.9 2254.89 3222.17 1538.66 4907.41 8115.97 6029.49 463.755 4443.66 1083.64 3081.85 2138.53 20964.4 1020.77 2947.64 1259.19 19181.4 1834.03 924.827 2402.81 1683.21 995.703 153.621 655.952 2090.17 607.876
internal_count=161742 62980 98762 92368 41023 13104 30478 6394 61890 27919 23140 4498 57392 7935 14887 22543 21957 7794 8253 5162 18741 5576 7291 12519 9678 7942 801 4212 22296 4038
is_linear=0
shrinkage=0.05


Tree=5
num_leaves=31
num_cat=0
split_feature=1 10 10 3 1 5 8 40 42 8 10 34 5 4 42 42 34 35 35 36 3 2 38 7 34 42 3 36 1 5
split_gain=44811.5 6706.68 6137.74 1655.03 1129.63 1350.33 890.277 682.092 559.905 558.776 410.786 389.106 387.645 618.243 340.401 277.814 247.895 266.962 230.084 228.327 223.999 215.457 212.924 195.844 188.003 187.052 182.487 188.784 172.582 172.41
threshold=5.5000000000000009 0.36842105264240538 0.70212765959451129 39.500000000000007 2.5000000000000004 2.5000000000000004 0.086434175608630412 1.1458333333095707 0.36421567953648831 0.029161646942101903 0.88888888891111117 0.99959107856547635 2.5000000000000004 2.5000000000000004 0.39544734266453102 0.37892658618302127 0.999999999990834 0.99999999998166678 0.11999999999964002 -0.45766352117061609 599.50000000000011 1.5000000000000002 274.24967956542974 0.18962880944848678 0.999999999990834 0.54433105393820924 165.50000000000003 -0.48090983927249903 1.5000000000000002 12.500000000000002
decision_type=2 2 2 2 2 2 2 2 2 2 2 2 2 2 2 2 2 2 2 2 2 2 2 2 2 2 2 2 2 2
left_child=1 23 8 6 12 11 16 10 26 -7 15 21 13 -3 22 20 -4 -18 -16 -9 -5 25 24 -1 -8 -6 27 -2 -15 -28
right_child=2 4 3 7 5 9 14 19 -10 -11 -12 -13 -14 28 18 -17 17 -19 -20 -21 -22 -23 -24 -25 -26 -27 29 -29 -30 -31
leaf_value=0.15137489451147557 0.079606691592428058 0.13040618937127266 -0.0091964573000213583 -0.011977904348380078 0.045466797847927044 0.062588064967197349 0.022930736747550796 0.15627318854846373 0.12528928245956547 0.11718222953840987 -0.040415913299949716 0.093341574142609629 0.13321304182278323 0.10466665667664128 0.1520398568285648 0.11603997090362426 0.15690331626293974 -0.018701455328042141 0.06666380734860837 0.030025184023234459 0.40808955324756263 0.015782979085762868 0.24876335100733413 0.14193379045889862 0.12533201343988462 0.11485449089830729 0.17419503360826452 0.019707685418309355 0.083314370799145429 -0.022760072615583271
leaf_weight=12015.310738503933 291.6419447734952 1807.7941486388445 1579.2278118953109 1047.2474387809634 818.94441124051809 609.77901963889599 723.19889340549707 53.982895627617836 878.75615506619215 2025.6389654949307 3634.9833019003272 406.45524360239506 1759.8464558646083 2070.1533512473106 105.90294082462788 45.090702258050442 47.766684770584106 39.573705106973648 309.65331660956144 106.40667744725943 3.1832147166132918 628.02014005184174 11.210378989577292 10118.929219245911 47.783914998173714 110.19527653604746 58.96024576574564 239.62273233383894 1743.2372564822435 13.691655203700064
leaf_count=9937 1731 3544 17560 12857 5937 4068 6273 166 2104 6112 48859 1857 3607 6455 375 246 196 398 2295 858 17 4896 37 11110 205 589 229 1724 7620 103
internal_value=0.104296 0.130749 0.00660764 -0.0112126 0.100615 0.0811641 0.0189702 -0.0288889 0.0998175 0.10455 -0.0323271 0.0497768 0.112734 0.106323 0.0518516 -0.00548823 -0.00466146 0.0773372 0.0884216 0.0725169 -0.0107049 0.0384053 0.032423 0.147059 0.0292774 0.0536961 0.0627537 0.0525897 0.0949058 0.137078
internal_weight=43352.2 34114.3 9237.88 7755.21 11980.1 4599.03 2864.32 4890.89 1482.67 2635.42 4730.5 1963.62 7381.03 5621.18 1197.75 1095.52 1666.57 87.3404 415.556 160.39 1050.43 1557.16 782.193 22134.2 770.983 929.14 603.917 531.265 3813.39 72.6519
internal_count=161965 65732 96233 90342 44685 23459 27339 63003 5891 10180 61979 13279 21226 17619 9185 13120 18154 594 2670 1024 12874 11422 6515 21047 6478 6526 3787 3455 14075 332
is_linear=0
shrinkage=0.05


Tree=6
num_leaves=31
num_cat=0
split_feature=0 10 10 3 8 0 5 39 5 3 44 8 34 10 31 35 39 8 7 47 38 56 3 44 3 31 34 47 31 7
split_gain=36328.4 5541.39 5254.65 1826.47 870.894 783.299 627.468 592.899 587.749 725.021 500.155 366.262 363.623 312.228 293.938 290.162 265.972 224.334 218.577 236.775 203.045 187.801 182.262 184.067 181.505 179.82 161.227 159.457 149.963 182.029
threshold=5.5000000000000009 0.70212765959451129 0.30000000000325 39.500000000000007 0.086434175608630412 3.5000000000000004 2.5000000000000004 -1.3324420677277096 2.5000000000000004 3.5000000000000004 0.70741582855689278 0.020050251256281404 0.999999999990834 0.88888888891111117 -0.3743421052488986 1.9999999999732145 -1.2199944690242133 0.12483698487219612 0.43761792452830195 0.86367148160934459 86.743190765380874 0.24448499594484993 383.50000000000006 0.74338215712801026 231.50000000000003 0.28021978021908739 0.34560761341739737 0.46834896504879003 -0.33333333332499987 0.35139452551593131
decision_type=2 2 2 2 2 2 2 2 2 2 2 2 2 2 2 2 2 2 2 2 2 2 2 2 2 2 2 2 2 2
left_child=2 10 25 4 12 8 20 -5 9 -4 -2 -8 28 22 -11 -14 -6 -10 21 -20 -7 -16 23 -9 26 -1 27 -12 29 -3
right_child=1 3 5 7 16 6 11 13 17 14 24 -13 15 -15 18 -17 -18 -19 19 -21 -22 -23 -24 -25 -26 -27 -28 -29 -30 -31
leaf_value=0.13330365179621362 0.11917242857276239 0.21733915332753606 0.10902174765928151 0.087479054163685635 0.11612126110421919 0.033023545352786086 0.042796717765864203 0.08694230600520754 0.097371016955620934 0.093997937850487268 -0.058671486965445246 0.099692762681948877 0.13027373974245782 -0.037874023159902272 0.099619137821684633 -0.056009322175066434 0.042886187220751028 0.12601805954176135 0.038637452165879771 0.085513613585395845 0.16919341813609165 0.059263786988832834 0.1844464162219672 -0.013816050202612297 0.1533933761705627 0.11257809712291095 0.072932468023823374 0.044650077964739389 -0.010294153375445203 0.0082164473752074484
leaf_weight=21740.793132066727 804.66729811578989 16.017499431967735 3028.1517821103334 108.31271034479141 137.37755428999662 974.24463129788637 363.49080098420382 47.476839356124401 1013.98948097229 1508.2313494980335 46.330220617353916 1275.1132764965296 85.399943232536316 3602.5456117391586 651.57682254910469 27.679678678512573 1270.855490885675 2096.1330199241638 940.59830079972744 377.49743161350489 28.167470425367355 517.07989091426134 12.286926776170729 1000.7802100479603 54.779604963958263 1099.4922003298998 622.31635919958353 192.49233002960682 1684.5615685731173 29.701717957854271
leaf_count=18476 1538 56 6695 479 508 6996 2492 300 3198 4555 385 3701 382 49594 2507 295 9455 3400 5092 1591 145 2440 97 12533 166 1569 3165 1119 18811 225
internal_value=0.0945378 0.00898784 0.117943 -0.00847399 0.020425 0.092262 0.0680096 -0.0281679 0.0985829 0.0905695 0.0904114 0.0870715 -0.00219209 -0.0308542 0.076583 0.0846753 0.0500305 0.116678 0.0660207 0.0520626 0.0368499 0.0817636 -0.00700848 -0.00925258 0.0651438 0.132306 0.05953 0.0246063 -0.00786916 0.0814815
internal_weight=45358.1 9743.58 35614.6 8023 3251.59 12774.3 2641.02 4771.4 10133.3 7023.14 1720.59 1638.6 1843.36 4663.09 3994.98 113.08 1408.23 3110.12 2486.75 1318.1 1002.41 1168.66 1060.54 1048.26 915.919 22840.3 861.139 238.823 1730.28 45.7192
internal_count=161965 99108 62857 92735 29732 42812 13334 63003 29478 22880 6373 6193 19769 62524 16185 677 9963 6598 11630 6683 7141 4947 12930 12833 4835 20045 4669 1504 19092 281
is_linear=0
shrinkage=0.05


Tree=7
num_leaves=31
num_cat=0
split_feature=0 10 10 3 8 48 40 46 8 10 45 3 8 41 46 5 42 34 42 42 48 39 49 30 3 5 41 42 3 2
split_gain=30029.3 4757.6 4653.81 1672.97 752.893 653.858 591.818 437.894 384.661 381.879 337.839 252.24 231.67 234.995 225.133 219.237 202.349 199.211 246.152 196.916 198.585 188.688 160.826 159.372 152.538 189.77 149.224 149.192 149.051 147.365
threshold=5.5000000000000009 0.70212765959451129 0.30000000000325 39.500000000000007 0.13210380191512269 0.28436657681709926 1.1458333333095707 0.68749999999677747 0.22202660406885757 0.88888888891111117 0.58635336160659801 7.5000000000000009 0.26091494962330947 0.0066328421235084005 0.66666666666018526 3.5000000000000004 0.37892658618302127 0.999999999990834 0.51958873331410127 0.42857142856224495 0.99999999997750011 -1.2631578947218836 0.88603395223617565 0.3388913276753488 1.5000000000000002 1.5000000000000002 1.0000000180025095e-35 0.25495097567804587 383.50000000000006 1.5000000000000002
decision_type=2 2 2 2 2 2 2 2 2 2 2 2 2 2 2 2 2 2 2 2 2 2 2 2 2 2 2 2 2 2
left_child=2 7 24 4 17 10 9 -2 11 16 -4 -7 13 -12 23 -13 28 19 -19 -3 -21 -6 -8 -15 -1 -26 27 -11 29 -5
right_child=1 3 5 6 21 8 22 -9 -10 26 12 15 -14 14 -16 -17 -18 18 -20 20 -22 -23 -24 -25 25 -27 -28 -29 -30 -31
leaf_value=0.12384743794283803 0.062936150200565685 -0.010856599176108518 0.099125828828648843 0.06603361571559721 0.11214799453619173 0.066580152854275307 0.10740623339621268 0.11397893693957438 0.089925231321202836 0.28096856561538436 0.090631482004322805 0.021800512318581579 0.1010908196925235 0.065664411875071951 0.09199424753828539 0.084489343563521307 0.091181505462406776 0.098741638689964828 -0.055972995352091361 0.077033283483745454 0.0028591073856683749 0.044422356907687983 0.0090375271868128916 0.032330095295073698 0.10751711451075935 0.12118311002572049 -0.039799788772934851 -0.05463110156699829 0.15082428018393701 -0.016788578699287002
leaf_weight=13201.97558735311 1138.683095626533 1572.1693112403154 4969.9431501254439 56.882050514221191 113.70958024263382 1437.2930963113904 95.117584332823753 665.91222728788853 1037.459545135498 7.2519310712814313 1499.5496167391539 765.29592458158731 1093.510079741478 1336.4028092622757 601.26860944926739 170.5479684099555 51.974401734769344 101.7325411811471 34.402557156980038 137.81652393937111 261.37088875472546 1076.247174218297 73.781994387507439 490.04771918058395 4189.9337690025568 6452.1530057787895 3389.1799247488379 6.0948873087763786 14.221963226795195 962.58104383200407
leaf_count=9419 5414 17519 11698 615 341 6321 375 959 2780 21 3567 5736 2100 5929 1443 700 246 453 370 925 2784 7340 649 2538 4840 5786 48759 79 97 12162
internal_value=0.0865497 0.00847615 0.107007 -0.00815188 0.0190986 0.0834316 -0.0274466 0.0817714 0.064529 -0.0309043 0.0898845 0.0534266 0.0807367 0.0750692 0.0654568 0.0332249 -0.00508458 0.00114589 0.0596439 -0.00289378 0.0284672 0.0508941 0.0644349 0.0567206 0.120257 0.115803 -0.0391427 0.127715 -0.0099249 -0.0121674
internal_weight=47004.5 9759.13 37245.4 7954.53 3297.45 13401.3 4657.09 1804.6 3410.6 4488.19 9990.72 2373.14 5020.78 3927.27 2427.72 935.844 1085.66 2107.49 136.135 1971.36 399.187 1189.96 168.9 1826.45 23844.1 10642.1 3402.53 13.3468 1033.69 1019.46
internal_count=161965 99108 62857 92735 29732 42812 63003 6373 15537 61979 27275 12757 15577 13477 9910 6436 13120 22051 823 21228 3709 7681 1024 8467 20045 10626 48859 100 12874 12777
is_linear=0
shrinkage=0.05


Tree=8
num_leaves=31
num_cat=0
split_feature=1 1 46 3 48 44 37 35 40 4 7 7 7 26 37 1 53 41 41 3 36 35 37 46 45 35 3 2 44 26
split_gain=25278.2 4121.05 3881.49 1137.56 845.392 589.839 561.454 509.824 284.568 270.829 261.633 241.083 227.809 215.737 211.704 191.229 189.064 214.593 182.245 180.021 171.61 161.875 160.799 159.637 150.564 141.855 136.639 136.384 138.149 124.961
threshold=5.5000000000000009 1.0000000180025095e-35 0.49999999999541672 35.500000000000007 0.33255451712832335 0.63679148228457072 -0.57071428570991889 -0.33238095237530202 1.3749999999085938 8.5000000000000018 0.37897140110550348 0.44288975864318331 0.57178393745557932 70.500000000000014 -0.66666666664999985 3.5000000000000004 0.26985593991139284 28.13620758056641 0.0066328421235084005 599.50000000000011 -0.48886911571025843 0.33220720720153984 -0.18715659340590476 0.81818181817623981 0.57878643274307262 -0.49999999999665173 383.50000000000006 1.5000000000000002 0.84402392469547272 58.500000000000007
decision_type=2 2 2 2 2 2 2 2 2 2 2 2 2 2 2 2 2 2 2 2 2 2 2 2 2 2 2 2 2 2
left_child=1 21 3 12 5 -3 -4 13 19 -7 -6 23 16 26 -11 -12 17 29 -16 22 -13 -1 -9 25 -20 -8 27 28 -5 -2
right_child=2 4 6 7 10 9 11 8 -10 14 15 20 -14 -15 18 -17 -18 -19 24 -21 -22 -23 -24 -25 -26 -27 -28 -29 -30 -31
leaf_value=0.11201715827202963 0.033959644158631758 0.10213389194505269 0.09341163456111444 0.062329160425520273 0.071171705536714855 0.08396848840957194 0.081820519276033843 -0.01413742828499402 0.05795417297440008 0.085702265321059984 0.057009058130642498 0.051555027589172492 -0.0083318352866241872 0.26435917681098492 0.11861219332225342 0.024983963779676377 0.010518015642080263 0.12147325272912396 0.071324417833818848 0.13984484140678757 -0.014669286047694689 0.093074354070261697 -0.038274243342981754 0.18073178822620162 0.043397327027584864 0.033857100254987976 0.24785067915124698 0.0076393879328148021 0.31548010134468463 0.31579044050200655
leaf_weight=21771.576651871204 721.71906617283821 3392.4843455255032 983.91063825786114 28.866492509841919 1780.7670425772667 5895.0415570884943 274.21182414144278 864.85757057368755 88.173979565501213 929.98925541341305 1216.0353365689516 159.97381203621626 644.51526514440775 9.0938445925712568 114.48424628376961 755.884422108531 873.4307484254241 80.638968721032143 769.20259460061789 15.048544079065321 251.80227214843035 1189.4121534228325 3413.328980922699 26.243303239345551 1295.4139067009091 352.10617238283157 6.4066126570105544 432.80524515360594 6.6263962239027014 3.9546664431691161
leaf_count=16709 5994 4949 2083 239 6650 14308 954 11182 584 1833 5295 809 6969 35 277 5144 7822 368 2680 134 2285 1569 49888 77 6318 2625 19 4112 40 14
internal_value=0.0798535 0.0974243 0.00546308 -0.0118363 0.0780713 0.0843655 0.0661848 -0.0255831 -0.0309615 0.077671 0.057279 0.0410153 0.0169389 0.0231254 0.0657304 0.0447331 0.0266353 0.0440941 0.0572069 -0.0327876 0.0110587 0.111036 -0.0333949 0.0599184 0.053802 0.0548562 0.0185041 0.0153665 0.109592 0.0354955
internal_weight=48348 39110.3 9237.71 7189.47 16149.3 12396.6 2048.25 4865.21 4381.41 9004.13 3752.69 1064.34 2324.26 483.799 3109.09 1971.92 1679.74 806.313 2179.1 4293.24 411.776 22961 4278.19 652.561 2064.62 626.318 474.705 468.298 35.4929 725.674
internal_count=161965 65732 96233 87400 47454 30365 8833 66233 61788 25416 17089 6750 21167 4445 11108 10439 14198 6376 9275 61204 3094 18278 61070 3656 8998 3579 4410 4391 279 6008
is_linear=0
shrinkage=0.05


Tree=9
num_leaves=31
num_cat=0
split_feature=1 10 10 3 8 42 5 0 44 34 8 10 10 41 42 6 3 54 5 34 35 3 46 10 0 5 53 44 54 10
split_gain=21601.5 3757.57 3555.09 1774.69 797.104 478.358 466.681 770.219 420.335 281.458 278.393 262.291 259.124 237.634 221.114 215.242 201.657 193.157 182.18 179.163 178.886 164.468 186.837 152.26 151.094 150.085 146.631 146.27 135.013 133.012
threshold=4.5000000000000009 0.70212765959451129 0.25000000000364581 39.500000000000007 0.086434175608630412 0.37892658618302127 2.5000000000000004 1.5000000000000002 0.70741582855689278 0.999999999990834 0.11323807779202537 1.4464285714709744 0.91304347828634225 0.0066328421235084005 0.39544734266453102 2.5000000000000004 2.5000000000000004 0.096972392968834212 4.5000000000000009 0.999999999990834 1.9999999999732145 6.5000000000000009 0.74193548386917285 1.5000000000285232 7.5000000000000009 2.5000000000000004 0.57649680971943018 0.62502253118874262 0.010071340422294702 1.5000000000151787
decision_type=2 2 2 2 2 2 2 2 2 2 2 2 2 2 2 2 2 2 2 2 2 2 2 2 2 2 2 2 2 2
left_child=2 8 27 4 9 12 7 16 -2 24 18 -7 -5 -9 19 -14 -4 26 21 25 -11 -8 28 -16 -3 -6 -15 -1 -23 -12
right_child=1 3 6 5 14 11 10 13 -10 20 29 -13 15 17 23 -17 -18 -19 -20 -21 -22 22 -24 -25 -26 -27 -28 -29 -30 -31
leaf_value=0.10482854772335709 0.091544713123566379 0.010645376486417696 0.091291664659579524 -0.011630876560809788 -0.02399613266526171 0.068450087374258992 0.088293047298482252 0.066124658329585126 0.047664677766536677 0.088768782607390601 0.092898662363558746 -0.016881715348936836 0.19760949339792605 0.051215148659614143 0.092801839476026535 -0.039961452868400332 0.070110365810463302 0.018394983654530621 0.09843934789396315 0.098878381196794707 -0.04161152195308554 0.057385243553123223 0.078216395579605233 0.044013833909012118 -0.017439273896473827 0.032806575926329198 -0.011409232552318939 0.095449292017948439 0.01280348471344752 0.0069226137788376274
leaf_weight=19405.093506038189 1071.1079812645912 814.71464119851589 1869.4110000580549 1216.231024838984 132.72179719805717 194.67994140833616 357.17079009115696 1410.0902171730995 1112.7221424356103 130.29842188954353 3354.1659056097269 167.56475299596786 9.5659840777516347 2099.2977026551962 315.68190331012011 2860.165360443294 2816.9579868018627 707.9218322634697 370.86126689612865 90.918651148676872 32.964064508676529 318.55842962116003 358.09530521184206 324.10269892215729 1161.8838646858931 939.24296141415834 97.827524699270725 5289.9455879628658 363.73244489729404 45.597533851861954
leaf_count=13827 1773 7566 2891 15791 1143 978 874 4341 5219 519 5465 2110 33 9724 1131 44091 6989 3826 743 303 339 1422 712 2073 13572 6291 594 5527 1926 172
internal_value=0.0741248 0.0107637 0.0913645 -0.00444183 0.0199833 -0.0260902 0.0714007 0.0645251 0.0691866 -0.00065178 0.0833761 0.0289779 -0.0309724 0.0492832 0.0444781 -0.0391695 0.0785597 0.0411084 0.0672859 0.0314893 0.0624439 0.0590189 0.0489689 0.0680868 -0.00586334 0.0257737 0.0484268 0.102819 0.0336185 0.0917456
internal_weight=49439.3 10574.6 38864.7 8390.74 3942.53 4448.21 14169.7 9001.51 2183.83 2139.86 5168.18 362.245 4085.96 4315.14 1802.67 2869.73 4686.37 2905.05 1768.42 1162.88 163.262 1397.56 1040.39 639.785 1976.6 1071.96 2197.13 24695 682.291 3399.76
internal_count=161965 102932 59033 95940 32937 63003 39679 28365 6992 21996 11314 3088 59915 18485 10941 44124 9880 14144 5677 7737 858 4934 4060 3204 21138 7434 10318 19354 3348 5637
is_linear=0
shrinkage=0.05


Tree=10
num_leaves=31
num_cat=0
split_feature=0 46 10 3 46 8 8 5 3 38 8 10 37 31 10 39 41 3 7 0 48 5 0 59 44 48 8 7 5 44
split_gain=18696.4 3582.73 2803.02 1414.6 816.205 508.812 424.414 402.611 559.785 381.374 264.638 240.324 258.802 228.608 214.089 176.172 171.387 160.718 149.044 146.955 146.95 145.322 162.143 142.466 138.508 137.437 135.72 128.509 126.777 125.919
threshold=4.5000000000000009 0.42105263157728534 0.25000000000364581 32.500000000000007 0.68749999999677747 0.045063506129079854 0.13210380191512269 2.5000000000000004 3.5000000000000004 143.01652526855472 0.068208556149732563 0.94285714288251044 2.2499999999578129 -0.3743421052488986 0.83823529414281472 -0.18716637010612572 0.075197227299213368 5.5000000000000009 0.43761792452830195 196.50000000000003 0.79999999999333349 3.5000000000000004 3.5000000000000004 0.022222222222185155 0.74619125781096074 0.99999999999746803 0.6512694687433328 0.84861217214158402 2.5000000000000004 0.90000801082461868
decision_type=2 2 2 2 2 2 2 2 2 2 2 2 2 2 2 2 2 2 2 2 2 2 2 2 2 2 2 2 2 2
left_child=2 3 24 6 5 14 16 8 -4 11 21 19 -13 -10 -3 -7 -2 -15 -19 -5 -6 22 -9 -11 -1 27 28 -14 -8 -25
right_child=1 4 7 9 20 15 26 10 13 23 -12 12 25 17 -16 -17 -18 18 -20 -21 -22 -23 -24 29 -26 -27 -28 -29 -30 -31
leaf_value=0.097547796871898351 0.037135134901023943 0.022907672629856653 0.077408412435264667 -0.011560071108830155 0.091307710356749172 0.069511296646807746 -0.0065686145288090031 0.058664858278512449 0.065526949722786026 0.17856848367744699 0.086493899181825457 -0.038401328190870443 0.049816708943366622 0.057993500635147445 -0.028835517051539635 0.036911191746331777 -0.0034375913496288431 0.05031331227205408 0.024401393246653968 0.21569076925601216 0.019099803367176836 0.082704681748727263 0.002504834706995699 -0.033014635876725325 0.087463656772524795 -0.054985834602144318 0.12723265936228653 0.35457380743706185 0.04619287343840929 0.35050564799870698
leaf_weight=20893.909290999174 319.08914166688919 647.01013077050447 3577.3215219676495 1466.6689638867974 1096.3434937745333 819.58760092407465 129.34446842223406 750.41165488958359 2038.3486808016896 30.560841031372547 3680.4732915312052 2837.8488733284175 100.31155277788639 1381.6899844929576 289.28929413110018 838.29927229881287 1412.3780365437269 1026.1783288642764 1208.5124806910753 7.1486595496535292 75.298833288252354 496.54643009603024 155.08492370694876 18.958019979298118 4068.1712009012699 34.394680038094521 46.369124531745911 3.5826686024665824 950.66051635891199 2.412563979625701
leaf_count=15022 2140 4022 6696 19455 1855 2978 890 2213 5183 118 5805 43763 872 4592 3210 5278 14373 4419 6498 27 563 1222 973 173 4278 452 153 13 4749 9
internal_value=0.0695818 0.012364 0.0857894 -0.0079322 0.0520299 0.0363863 0.0195805 0.0681506 0.0619289 -0.0253975 0.0794521 -0.0269697 -0.0351465 0.0521361 0.00692053 0.0530273 0.00403949 0.0445885 0.0363002 -0.0104578 0.0866671 0.0609667 0.0490463 0.109316 0.0959043 0.031646 0.0434703 0.0603259 0.039874 0.0102817
internal_weight=50402.2 11125.6 39276.6 7359.73 3765.83 2594.19 2857.84 14314.6 9232.05 4501.89 5082.52 4449.96 2976.14 5654.73 936.299 1657.89 1731.47 3616.38 2234.69 1473.82 1171.64 1402.04 905.497 51.9314 24962.1 138.289 1126.37 103.894 1080 21.3706
internal_count=161994 105093 56901 87187 17906 15488 22305 37601 27388 64882 10213 64582 45100 20692 7232 8256 16513 15509 10917 19482 2418 4408 3186 300 19300 1337 5792 885 5639 182
is_linear=0
shrinkage=0.05


Tree=11
num_leaves=31
num_cat=0
split_feature=0 46 10 4 46 8 5 4 8 37 8 35 2 10 35 34 32 6 43 44 33 5 40 40 5 34 35 48 10 0
split_gain=16337.2 3158.64 2723.41 1261.83 740.289 456.014 385.507 510.983 345.626 276.966 249.339 249.127 238.111 234.191 222.752 196.94 176.349 167.75 148.52 143.837 139.169 137.456 148.904 133.969 139.446 250.966 131.927 126.385 122.411 117.198
threshold=4.5000000000000009 0.40740740740627573 0.18750000000361333 19.500000000000004 0.68749999999677747 0.045063506129079854 2.5000000000000004 2.5000000000000004 0.086434175608630412 3.4999999998687508 0.066584564860426909 0.068181818181701964 1.5000000000000002 0.94285714288251044 -0.37499999999947259 0.999999999990834 1.3310859283774445 2.5000000000000004 0.38346944749355322 0.74619125781096074 0.92234230116233518 3.5000000000000004 0.13782051282005517 1.8571428570827806 2.5000000000000004 0.99959107856547635 1.9999999999732145 0.79999999999333349 0.75000000000156264 196.50000000000003
decision_type=2 2 2 2 2 2 2 2 2 2 2 2 2 2 2 2 2 2 2 2 2 2 2 2 2 2 2 2 2 2
left_child=2 3 19 8 5 11 7 -4 15 13 21 -3 18 16 -7 -2 29 -14 20 -1 -9 22 -8 24 25 -10 -17 -6 -12 -5
right_child=1 4 6 9 27 14 10 12 23 -11 28 -13 17 -15 -16 26 -18 -19 -20 -21 -22 -23 -24 -25 -26 -27 -28 -29 -30 -31
leaf_value=0.092116633006008461 -0.0055036122244398493 0.022765838899391055 0.0777224411203572 -0.012367328079245855 0.084388185556505749 0.063971792112155604 0.0694115648809491 0.025789462896277815 -0.045968853468304163 0.047909466121868395 0.086706158888584073 -0.031447782680251168 0.059574394802783717 -0.03483329650203066 0.02839589161538629 0.070643447888677477 0.25444625901933166 0.018412932678830006 0.059056288329727785 0.081888259903637128 0.058298763784150144 0.076460921269421819 0.028960276108207336 0.091597974510228011 0.039757466057979945 0.09224791580013654 -0.032336595471621987 0.017897670982161062 0.068489322866537625 0.17641462999403704
leaf_weight=20579.822895675898 1233.0078890323639 688.58739368617535 2352.4094286561012 1415.80924378708 1126.1084421947598 1000.4287565872073 377.55965357273817 743.70687112212181 123.97241442650557 128.21265208721161 2663.3457387983799 306.10787244513631 350.40085124969482 2896.7799075692892 785.4379824846983 149.94890287518501 6.2716445140540591 843.10171645879745 4756.4527499675751 4126.2807921171188 590.66696617007256 549.20631861686707 572.41003941744566 105.29858861118555 1011.2131086364388 44.678284227848053 39.239137530326843 76.311610728502274 1410.593997374177 8.2692965418100339
leaf_count=14443 12872 4344 3590 19041 1855 3499 950 3066 1060 979 3344 3525 1035 45152 5453 563 28 4307 14060 4278 1549 1241 2277 326 5258 179 369 563 2761 27
internal_value=0.0652161 0.0116943 0.080161 -0.00815445 0.0473887 0.0332135 0.0635156 0.0574621 0.018767 -0.0245137 0.073983 0.00608212 0.0509192 -0.0266596 0.0483252 0.0017846 -0.010106 0.0304975 0.0549209 0.0904083 0.0401799 0.0565491 0.0450374 0.0375602 0.0327376 -0.00935301 0.0492845 0.0801684 0.0803986 -0.0112711
internal_weight=51061.6 11145.7 39916 7162.7 3982.98 2780.56 15209.9 9636.74 2707.36 4455.34 5573.12 994.695 7284.33 4327.13 1785.87 1422.2 1430.35 1193.5 6090.83 24706.1 1334.37 1499.18 949.97 1285.16 1179.86 168.651 189.188 1202.42 4073.94 1424.08
internal_count=161994 105093 56901 85854 19239 16821 38180 27607 20627 65227 10573 7869 24017 64248 8952 13804 19096 5342 18675 18721 4615 4468 3227 6823 6497 1239 932 2418 6105 19068
is_linear=0
shrinkage=0.05


Tree=12
num_leaves=31
num_cat=0
split_feature=0 46 0 3 37 5 8 3 8 40 38 31 30 34 5 39 8 31 44 44 39 41 3 39 39 7 41 54 44 46
split_gain=14443.5 3036.26 1887.97 1671.47 604.822 455.402 394.656 356.976 352.311 326.323 213.052 216.944 211.459 191.809 223.238 194.923 186.944 141.806 141.732 140.102 138.878 142.189 135.431 123.264 121.735 147.214 156.058 138.813 119.516 115.562
threshold=3.5000000000000004 0.42105263157728534 1.0000000180025095e-35 32.500000000000007 -0.59918032786260711 2.5000000000000004 0.040047169811320761 2.5000000000000004 0.21822796492847252 1.2083333333111981 143.01652526855472 -0.10797727272708174 0.33344233703945936 0.999999999990834 3.5000000000000004 -0.59999999999442843 0.0091954508941783017 -0.56208700439436821 0.75000000000281264 0.66666666667129637 -1.4999999999762499 0.0032023191452026003 57.500000000000007 -2.3915887849730582 -0.44286205223514274 0.72010362694300534 0.37899339199066168 0.37045304232804238 0.5959140239247479 0.78947368420741015
decision_type=2 2 2 2 2 2 2 2 2 2 2 2 2 2 2 2 2 2 2 2 2 2 2 2 2 2 2 2 2 2
left_child=2 3 19 8 29 7 23 -4 13 10 11 24 17 14 -2 -16 -7 -9 -15 -1 -8 -22 -13 -6 25 27 -27 -5 -10 -3
right_child=1 4 5 9 6 16 20 12 28 -11 -12 22 -14 18 15 -17 -18 -19 -20 -21 21 -23 -24 -25 -26 26 -28 -29 -30 -31
leaf_value=0.087261982874615687 -0.0046008850850938485 0.061384280930313798 0.073351746202482443 0.013846352289436002 0.096265205733705478 0.05732853123978654 0.073345409756363777 0.069052719923090505 -0.031652047416207002 0.049511853228012589 0.13428374916169092 -0.01822093901745038 0.035917389424651079 0.0075246846825260507 0.076180139511278222 0.014755944639409165 0.079876948783604351 0.050418723331983419 0.065370157908634166 0.077885111249327912 0.11740972801917944 0.038209544189385158 -0.04001296779098841 0.008061811595023699 -0.012030466756848828 0.31335867655638006 -0.054692586134998049 0.4336903439485964 0.048910137502328851 0.088628031030967835
leaf_weight=19155.281471684575 1578.3332708626986 1074.2824046164751 2198.1095473319292 92.322399139404297 41.046680130064487 1209.7352088838816 413.53324730694294 1404.9167167395353 48.166930310428143 145.60055073350668 20.467644087970257 1038.5260534659028 1880.7854157462716 177.62858086824417 167.44868872314692 564.83469194173813 3827.7644270211458 3736.136077567935 262.21189516782761 5029.4666516631842 58.730422548949718 1615.2564675435424 2274.2314745374024 1131.6371760815382 730.96080825850368 9.3067103624343854 4.1708538830280295 2.0116595551371566 1040.8339123129845 610.41401268541813
leaf_count=13183 14753 2308 3206 1034 104 2997 899 2496 301 851 146 14858 6109 1074 924 4377 4740 11815 849 5058 82 8440 38068 8748 9814 45 55 11 4077 572
internal_value=0.0613524 0.0160154 0.0768042 -0.00272521 0.0469297 0.0623727 0.0343595 0.0557674 0.0212763 -0.0240687 -0.0266366 -0.02743 0.0502628 0.0117459 0.00598507 0.0288016 0.074462 0.0555109 0.0420094 0.085312 0.0473981 0.0409882 -0.0331813 0.0111491 -0.004715 0.0448837 0.199459 0.0227995 0.0453468 0.0712555
internal_weight=51544.2 13102 38442.2 8157.06 4944.9 14257.4 3260.2 9219.95 3839.46 4317.6 4172 4151.53 7021.84 2750.46 2310.62 732.283 5037.5 5141.05 439.84 24184.7 2087.52 1673.99 3312.76 1172.68 838.772 107.812 13.4776 94.3341 1089 1684.7
internal_count=161994 112390 49604 91237 21153 31363 18273 23626 26355 64882 64031 63885 20420 21977 20054 5301 7737 14311 1923 18241 9421 8522 52926 8852 10959 1145 100 1045 4378 2880
is_linear=0
shrinkage=0.05


Tree=13
num_leaves=31
num_cat=0
split_feature=0 42 10 1 48 35 5 4 8 8 34 34 5 43 42 8 8 39 10 42 38 2 44 2 8 29 3 37 24 45
split_gain=12862.2 2758.89 2050.91 1336.37 864.211 512.77 319.429 338.958 319.038 303.527 262.434 235.14 215.741 197.743 169.124 163.935 157.518 214.421 150.877 150.401 149.259 145.863 141.415 137.856 149.569 132.796 131.446 126.215 130.676 130.845
threshold=3.5000000000000004 0.33073819722151482 0.18750000000361333 9.5000000000000018 0.99999999997083344 -0.33238095237530202 2.5000000000000004 2.5000000000000004 0.0069687257187256513 0.23782135794330914 0.999999999990834 0.999999999990834 4.5000000000000009 0.60654312372207653 0.68493488921306744 0.11323807779202537 0.085318585743996908 -0.59999999999442843 0.94285714288251044 0.61721339984175483 -0.9563935399055481 5.5000000000000009 0.66666666667129637 1.5000000000000002 0.32469928595389858 0.29878575340157548 343.50000000000006 -0.40462814339147912 370.50000000000006 0.72156420350074779
decision_type=2 2 2 2 2 2 2 2 2 2 2 2 2 2 2 2 2 2 2 2 2 2 2 2 2 2 2 2 2 2
left_child=2 3 22 9 8 23 7 -4 14 11 18 12 27 -14 -3 -8 20 -18 -7 -10 -6 -19 -1 -5 26 -9 -25 -2 -29 -30
right_child=1 4 6 5 16 10 15 25 19 -11 -12 -13 13 -15 -16 -17 17 21 -20 -21 -22 -23 -24 24 -26 -27 -28 28 29 -31
leaf_value=0.082889528289652514 0.030880692221394473 0.024999830558917229 0.067662037164208322 0.11759884997482187 0.27780444111335234 -0.014673820066678379 0.054430245430247597 0.052502813040546104 0.057297074766602354 0.045072227858490466 0.11103637180922961 0.060667413019769315 0.0047926241383650196 0.06394362236293373 0.099161640994893108 0.074480499588040858 0.103773245966508 0.027113243631605572 -0.036193781982742888 0.085104648177301956 -0.014383390187905435 -0.031294911783131769 0.073524344856376961 0.00061082086615088093 0.084911177529817722 0.038547195221887973 0.14515336097615114 -0.01282544967266055 -0.0042269906843959452 0.07115936597006349
leaf_weight=19812.125029712915 256.71126491576433 960.43290950730443 2437.7632494717836 36.344196356832981 4.4044067636132231 1179.064849562943 1530.567874699831 3630.1172490566969 2325.9115215539932 871.49803130328655 33.49162296205759 218.95437848567963 290.09394402801991 275.45292915403843 83.5633924305439 3052.8982604444027 73.966757856309414 460.0251508243382 2634.0318808704615 614.78167019039392 572.2329979762435 139.24462200701237 5060.4907518774271 422.26730175688863 69.563536204397678 3213.6958691105247 16.337378636002541 1365.2675364650786 136.98392494767904 99.271751929074526
leaf_count=13648 1487 5239 3590 223 19 16548 3554 9942 6591 3363 94 669 2197 1431 184 3823 314 2937 43732 684 6421 1635 5058 3613 322 9989 40 12639 1218 790
internal_value=0.0578945 0.0151471 0.0723945 -0.00349615 0.0433025 -0.021887 0.0569854 0.0516523 0.0546807 0.0194836 -0.0283155 0.0110452 0.00656252 0.0336025 0.0309359 0.0677851 0.00702776 0.0234552 -0.0295395 0.0631105 -0.0121516 0.0135417 0.0809841 0.0235258 0.0167977 0.0459496 0.00599482 -0.00166699 -0.00688412 0.0274494
internal_weight=51877.6 13139.9 38737.7 7905.33 5234.56 4391.1 13865 9281.58 3984.69 3514.23 3846.59 2642.74 2423.78 565.547 1044 4583.47 1249.87 673.237 3813.1 2940.69 576.637 599.27 24872.6 544.512 508.168 6843.81 438.605 1858.23 1601.52 236.256
internal_count=161994 112390 49604 88366 24024 64572 30898 23521 12698 23794 60374 20431 19762 3628 5423 7377 11326 4886 60280 7275 6440 4572 18706 4198 3975 19931 3653 16134 14647 2008
is_linear=0
shrinkage=0.05


Tree=14
num_leaves=31
num_cat=0
split_feature=0 42 0 1 48 44 35 8 8 34 8 0 37 46 34 7 50 8 31 44 40 8 25 42 3 48 0 60 9 38
split_gain=11526.8 2439.9 1862.87 1217.24 762.401 381.564 367.124 321.395 313.464 267.942 256.619 195.494 188.102 157.895 155.07 146.97 153.58 154.367 142.256 139.453 127.315 123.555 120.868 120.391 112.421 111.015 154.244 109.777 130.114 99.9495
threshold=3.5000000000000004 0.33073819722151482 1.0000000180025095e-35 11.500000000000002 0.99999999997750011 0.63172054680540846 -0.33238095237530202 0.22947271307927045 0.0069687257187256513 0.999999999990834 0.28426212590299277 1.5000000000000002 -0.33333333332870357 0.74999999999218769 0.999999999990834 0.048900047824007607 -0.44510926532363665 0.035737416728349354 -0.59934210524476395 0.66666666667129637 2.7499999997416671 0.32469928595389858 6.5000000000000009 0.68493488921306744 106.50000000000001 0.24999999999531253 196.50000000000003 5.5833333331013906 0.077677224736048267 -0.93379303812980641
decision_type=2 2 2 2 2 2 2 2 2 2 2 2 2 2 2 2 2 2 2 2 2 2 2 2 2 2 2 2 2 2
left_child=2 3 19 7 8 -4 21 9 18 12 11 -7 -2 20 25 -6 17 -17 -3 -1 -10 24 -13 -20 -5 26 -8 28 -14 -18
right_child=1 4 5 6 15 10 14 -9 13 -11 -12 22 27 -15 -16 16 29 -19 23 -21 -22 -23 -24 -25 -26 -27 -28 -29 -30 -31
leaf_value=0.078953614742930944 0.025485499552127151 0.075675208411847411 0.069185324794401495 -0.018699392891502888 0.087945154927730029 0.053856223160045028 -0.020558470994936628 0.039002733551006225 0.048055315491572069 0.058147296861296452 0.064316304348785575 0.043167924219512904 0.087634571328212479 0.076102489515848901 0.10930775835988236 -0.030190167715303147 0.14843529662435961 0.067738369699922613 0.017442893276961264 0.069629980312661904 0.098867477756219596 0.084041311481446182 0.023384463564541057 0.096054816964648029 0.037394570140497879 -0.038233946352512913 0.17173294316633844 0.01576933742106849 -0.01222946207918796 -0.014953115690986306
leaf_weight=19107.063581049442 701.50393857061863 136.14021803438663 3380.8881995379925 187.92446683719754 46.58615056052804 4235.7560917437077 1137.1972710937262 1040.3326229155064 2141.5782990679145 236.95291682332754 2466.7051040530205 3668.9930115193129 33.260573327541351 862.9763675108552 19.748455531895161 58.260765075683594 9.4771118834614736 130.11136693507433 987.77512439340353 5075.878860771656 130.80724931508303 62.710719652473927 977.80942134559155 51.229186542332172 170.23510568961501 2039.9290940910578 10.525160603225229 527.94470258057117 1685.865792632103 757.74779059737921
leaf_count=13183 4574 186 4421 1798 263 8297 17414 4451 6636 692 3757 11434 199 1036 58 679 46 776 5998 5058 194 265 3454 180 1146 36425 41 4727 16576 8030
internal_value=0.0547755 0.0143369 0.0684585 -0.00336514 0.0405072 0.0544412 -0.0246082 0.0148739 0.0496402 0.00699389 0.050049 0.046087 0.00288311 0.0578949 -0.0303696 0.00122503 -0.00300265 0.0374505 0.0276161 0.0769966 0.0509803 0.0192983 0.039005 0.0213189 0.00796236 -0.0312349 -0.0187951 -0.00417304 -0.0102974 -0.0129349
internal_weight=52079.9 13166.8 38913.1 7854.13 5312.69 14730.2 3628.27 4225.86 4310.51 3185.53 11349.3 8882.56 2948.58 3135.36 3207.4 1002.18 955.597 188.372 1175.14 24182.9 2272.39 420.87 4646.8 1039 358.16 3187.65 1147.72 2247.07 1719.13 767.225
internal_count=161994 112390 49604 88366 24024 31363 57147 31219 14230 26768 26942 23185 26076 7866 53938 9794 9531 1455 6364 18241 6830 3209 14888 6178 2944 53880 17455 21502 16775 8076
is_linear=0
shrinkage=0.05


Tree=15
num_leaves=31
num_cat=0
split_feature=10 1 44 6 3 5 44 35 10 7 32 34 9 44 5 3 35 1 50 32 26 3 0 28 5 0 47 43 5 42
split_gain=10611.2 4251.19 715.293 480.363 438.094 648.354 391.143 371.467 180.054 174.431 168.411 161.516 148.301 144.92 144.16 175.532 143.494 139.88 137.624 127.965 139.654 139.189 125.291 117.616 116.661 169.185 125.277 116.405 115.19 113.228
threshold=0.49999999999583339 6.5000000000000009 0.81746550093257808 2.5000000000000004 4.5000000000000009 2.5000000000000004 0.57605973167608493 0.088235294117452415 0.97183098594480777 0.038711288711288656 0.44530447503958587 0.12253556522570776 0.47655677655677658 0.67086501725696468 1.5000000000000002 2.5000000000000004 3.1909090908626285 4.5000000000000009 -0.21099250037365405 0.51397456124868424 60.500000000000007 428.50000000000006 19.500000000000004 0.39623179363610944 6.5000000000000009 3.5000000000000004 0.98630648851394664 0.689172923564911 2.5000000000000004 0.54433105393820924
decision_type=2 2 2 2 2 2 2 2 2 2 2 2 2 2 2 2 2 2 2 2 2 2 2 2 2 2 2 2 2 2
left_child=6 4 7 -4 14 9 -1 10 12 -6 -3 27 19 16 15 -2 -9 29 -18 -5 21 -21 -10 -12 25 -7 -27 -8 -13 -11
right_child=1 2 3 8 5 24 11 13 22 17 23 28 -14 -15 -16 -17 18 -19 -20 20 -22 -23 -24 -25 -26 26 -28 -29 -30 -31
leaf_value=0.075412003222407403 0.05742718188431091 0.02004208523292271 0.10347275990062643 -0.015671409567947808 0.052792939568541565 0.053799243918164777 0.0023643549662470615 0.032335830794708045 -0.01707695218002548 0.017490221478981934 0.095673117689229856 0.060212263591127115 0.15022833961710375 -0.015814234636205054 0.063556253443353056 0.035685494012293144 0.070986357068569247 -0.0034064565617732759 -0.04901722926015778 0.01910255102645218 0.28059815403169802 0.44509672339941553 -0.042324882733882234 0.030853105426246408 0.07329109404043703 0.031797960518825837 0.073827880571813109 0.051105585117631962 0.071397822807415925 0.043011674338957577
leaf_weight=19166.872327536345 1817.0490453839302 1520.425546489656 76.698985025286674 1590.2529144473374 375.87401483207941 2346.2855490148067 158.23835575580597 375.41972957551479 791.06199455633759 2851.8963516652584 135.62152452766895 5397.8708012551069 14.168691631406544 1169.0082121901214 1801.0343474447727 1898.0935990363359 29.752696715295315 685.14791352301836 121.27987468987703 92.924182508140802 5.8015127666294566 1.9579101800918568 1296.9962931722403 144.59429608285427 370.56779133528471 2283.5013797953725 192.21732459962368 542.29265724122524 4012.6300056129694 512.72511279582977
leaf_count=13504 2658 9441 150 22652 1113 4443 432 2963 10401 12870 633 6780 84 14430 3117 4832 166 5559 1218 1177 24 3 24674 986 826 9584 444 925 4079 1631
internal_value=0.0513717 0.0255518 -0.00560112 -0.0204107 0.040714 0.0342717 0.0712145 0.0107917 -0.0229156 0.0202102 0.0266066 0.0632576 -0.0108606 -0.0060044 0.0519471 0.0463192 0.0157787 0.017186 -0.0253771 -0.0122104 0.0424542 0.027893 -0.0327597 0.0622253 0.0462563 0.0441787 0.0350612 0.0400957 0.0649818 0.0213794
internal_weight=51778.3 22500.4 7365.96 3869.86 15134.4 9618.22 29277.9 3496.1 3793.16 4425.64 1800.64 10111 1705.11 1695.46 5516.18 3715.14 526.452 4049.77 151.033 1690.94 100.684 94.8821 2088.06 280.216 5192.57 4822 2475.72 700.531 9410.5 3364.62
internal_count=161799 136079 89002 59165 47077 36470 25720 29837 59015 21173 11060 12216 23940 18777 10607 7490 4347 20060 1384 23856 1204 1180 35075 1619 15297 14471 10028 1357 10859 14501
is_linear=0
shrinkage=0.05


Tree=16
num_leaves=31
num_cat=0
split_feature=10 1 46 10 0 5 1 41 33 37 37 7 4 5 48 32 7 5 7 7 0 41 41 5 45 7 39 2 39 7
split_gain=9803.32 3761.57 649.84 416.51 386.535 452.223 358.132 226.674 196.472 190.791 172.857 168.875 162.365 145.962 138.705 147.687 135.399 135.206 137.238 133.625 133.597 126.431 123.398 183.638 124.677 119.281 119.097 126.823 113.595 112.44
threshold=0.49999999999583339 6.5000000000000009 0.41176470588053632 0.25000000000364581 2.5000000000000004 2.5000000000000004 15.500000000000002 1.0000000180025095e-35 0.29670329670329681 2.2499999999578129 3.4999999998687508 0.45008591065292097 12.500000000000002 2.5000000000000004 0.87499999999179712 0.42671673439071722 0.24689429012345679 4.5000000000000009 0.68196869355809764 0.22956891317547054 248.50000000000003 44.119844436645515 0.033567976206541013 2.5000000000000004 0.68076670169830333 0.079021706809396366 -1.4935530085390993 1.5000000000000002 -1.8424317617623331 0.94749373433583972
decision_type=2 2 2 2 2 2 2 2 2 2 2 2 2 2 2 2 2 2 2 2 2 2 2 2 2 2 2 2 2 2
left_child=3 4 6 16 22 8 7 12 -6 21 20 14 -3 -5 15 -4 -1 18 -7 -11 -8 -9 -2 24 -24 -10 27 -27 -13 -21
right_child=1 2 11 13 5 17 10 9 25 19 -12 28 -14 -15 -16 -17 -18 -19 -20 29 -22 -23 23 -25 -26 26 -28 -29 -30 -31
leaf_value=0.073540239585449654 0.051312975690864918 -0.0016107637045137556 0.029084287697813918 0.039909924366709301 -0.0031054453631580367 0.038070604164902211 -0.032046617777058396 -0.012169387155119575 0.062439158756215564 0.089317599268698172 0.032626079073317833 0.08054152114496721 0.092523583849813892 0.060021273122212442 -0.020628885693137831 0.086552138152432678 0.066139898264188854 0.053916884170939143 0.002485983734373429 0.0071688434775333369 0.12825902786061749 0.073670184033719568 0.038231012003637821 0.055407553949903612 0.013754186060336454 0.14075195742684743 0.017669576853691894 -0.029873274758867793 -0.0052792217826213364 0.35029550421178701
leaf_weight=14339.778459444642 4370.3055014610291 81.890254236757755 1022.2269668467343 1401.2942133843899 1018.9068766087294 2537.5994314402342 2366.0551340915263 2336.4068951457739 183.08569220453501 77.26983167976141 111.15371869131923 40.891412235796452 103.96104898303747 2532.9785581678152 122.37148864939809 125.5254716090858 10863.368951901793 1266.0791069120169 303.33963940292597 190.06940187141299 13.06871025636792 43.698530878871679 1998.0269951969385 1193.5256291925907 703.41009931266308 38.957606293261051 1686.3878098353744 15.116346471011637 675.75542310997844 2.4179285541176787
leaf_count=9921 7559 541 5295 3012 6287 8368 42631 30000 553 369 846 79 311 3348 1222 452 9439 3294 1780 1541 96 246 5586 1897 2430 138 9087 98 5363 10
internal_value=0.0488137 0.0241223 -0.00537961 0.0679886 0.0382094 0.0296082 -0.0144831 -0.00233285 0.0146467 -0.00607663 -0.0283187 0.0190243 0.0510459 0.0528581 0.0299741 0.0353693 0.0703505 0.0403273 0.0342711 0.0337753 -0.031166 -0.0105934 0.0455454 0.039074 0.0318576 0.02405 0.0200117 0.0930538 -0.000382345 0.011479
internal_weight=51764.9 22627.5 7312.76 29137.4 15314.7 7049.47 5325.99 2835.71 2942.45 2649.86 2490.28 1986.77 185.851 3934.27 1270.12 1147.75 25203.1 4107.02 2840.94 269.757 2379.12 2380.11 8265.27 3894.96 2701.44 1923.55 1740.46 54.074 716.647 192.487
internal_count=161799 136079 89002 25720 47077 29605 76591 33018 16163 32166 43573 12411 852 6360 6969 5747 19360 13442 10148 1920 42727 30246 17472 9913 8016 9876 9323 236 5442 1551
is_linear=0
shrinkage=0.05


Tree=17
num_leaves=31
num_cat=0
split_feature=10 0 35 0 0 7 44 7 37 42 32 10 32 7 7 59 25 44 43 34 10 31 35 15 46 45 7 53 36 25
split_gain=9106.37 3235.8 812.458 371.082 353.724 338.634 322.528 230.736 209.441 160.344 148.818 140.838 190.043 159.172 225.528 142.781 140.642 134.088 129.969 145.575 115.451 115.319 112.143 111.951 241.721 111.544 107.105 105.856 104.284 103.191
threshold=0.44680851065105259 7.5000000000000009 -0.3333333333308332 1.5000000000000002 19.500000000000004 0.39686630666012107 0.60653870359857798 0.55125078173858677 3.4999999998687508 0.34289092933778315 -1.3181977118824637 0.95454545456751039 0.41799026458993549 0.25535741619470381 0.23739190465809168 0.49766355138913776 2.5000000000000004 0.56252594687493318 0.39548584818840032 0.99691027957477785 0.18750000000361333 -0.2812499999978027 -0.29146440129374929 -0.27465327499999997 0.10638297872323446 0.60736605525016796 0.86684397163120586 0.55961783826477929 -0.97053539752960194 36.500000000000007
decision_type=2 2 2 2 2 2 2 2 2 2 2 2 2 2 2 2 2 2 2 2 2 2 2 2 2 2 2 2 2 2
left_child=6 3 9 25 5 16 -1 10 11 28 -5 12 23 14 15 22 18 -10 19 -4 -8 -18 -14 24 -6 -2 -19 -12 -3 -30
right_child=1 2 4 7 8 -7 20 -9 17 -11 27 -13 13 -15 -16 -17 21 26 -20 -21 -22 -23 -24 -25 -26 -27 -28 -29 29 -31
leaf_value=0.069244220837872225 0.053645859019901057 0.1186600174456441 -0.016389585069244563 0.060819642791771371 0.54951022149550099 -0.016343948421343641 0.06134938657269489 0.020097245289095209 -0.055923327221877352 0.05005799485455345 0.035072602541887744 -0.035832549883776002 0.32043983415694344 0.023230401105538579 0.516255649706998 0.52519799924498656 0.046092546198343659 0.048987690463096124 0.044089519851700482 0.10433414012199681 0.048486595837363672 -0.008701419903541131 -0.05514717752751698 -0.021701935212136477 0.03374131807890398 0.038564096340086909 0.23793594336876059 0.0052527941605081813 0.011699237839606587 0.24208052197602048
leaf_weight=19682.898250207305 2922.6422351151705 24.053156547248363 195.19687695428729 548.06160634756088 2.4431557171046725 1601.3401167690754 5834.7944592833519 3395.5354427546263 30.148012477904558 581.33028866350651 7026.3001449480653 1819.8567087128758 2.5931469090282908 43.707027204334736 4.3039604201912871 1.695623144507407 115.15803650021553 93.404669471085072 563.58947342261672 28.634495925158262 2488.5027285963297 577.88752368465066 8.508353643119337 781.50776347890496 32.363888222724199 2111.8551528155804 8.1548778638243657 310.7715040370822 826.28713161498308 4.8893355578184119
leaf_count=14328 4808 74 2296 992 20 19235 5663 15318 335 1449 22920 34828 13 597 26 10 477 615 4150 120 3863 6015 130 11667 394 4231 14 1238 5954 19
internal_value=0.0464606 0.0236241 -0.0039291 0.0360319 -0.0121263 -0.000407549 0.065755 0.0309943 -0.0248936 0.0297968 0.0356869 -0.0279002 -0.0114421 0.0738314 0.203158 0.0978559 0.01683 0.0366725 0.0312879 -0.000945535 0.0575037 0.000403271 0.0325844 -0.0177942 0.0699439 0.0473194 0.0641596 0.0338095 0.0160246 0.0130544
internal_weight=51668.4 23662.2 7347.05 16315.2 5910.49 3081.81 28006.2 11280.7 2828.69 1436.56 7885.13 2696.98 877.123 60.8081 17.1011 12.7971 1480.47 131.708 787.421 223.831 8323.3 693.046 11.1015 816.315 34.807 5034.5 101.56 7337.07 855.23 831.176
internal_count=161799 137945 88438 49507 80942 32293 23854 40468 48649 7496 25150 47685 12857 776 179 153 13058 964 6566 2416 9526 6492 143 12081 414 9039 629 24158 6047 5973
is_linear=0
shrinkage=0.05


Tree=18
num_leaves=31
num_cat=0
split_feature=10 1 46 3 0 44 7 31 39 33 7 10 48 39 3 42 28 36 10 7 9 40 31 0 11 28 34 28 35 34
split_gain=8510.84 2930.91 662.192 330.795 328.979 324.428 221.978 197.713 179.452 165.531 163.96 156.296 142.23 133.353 129.918 129.615 116.246 115.1 113.451 109.657 106.132 121.107 108.806 105.243 106.873 158.497 105.135 103.262 102.61 119.533
threshold=0.44680851065105259 6.5000000000000009 0.41666666666406255 57.500000000000007 2.5000000000000004 0.60653870359857798 0.33886593204775023 -0.49999999997916661 -0.86692708333183555 0.98869801084990994 0.68196869355809764 0.96879426348721531 0.63157894736592812 -1.1525688333666906 2.5000000000000004 0.33333333332407411 0.63667329801753458 -0.89247605204582203 0.18750000000361333 0.45316348522167488 0.40754985754985756 0.24350649350565809 0.74999999996718769 159.50000000000003 6.5000000000000009 0.80016920473773279 0.52317270144820538 0.24955328850761263 2.8786764705707744 0.77057392638345845
decision_type=2 2 2 2 2 2 2 2 2 2 2 2 2 2 2 2 2 2 2 2 2 2 2 2 2 2 2 2 2 2
left_child=5 4 3 6 14 -1 9 -6 27 13 -9 23 15 -3 -2 -4 20 -16 -7 -19 -15 -22 -23 24 -10 -26 -21 -5 29 -11
right_child=1 2 12 8 7 18 -8 10 11 28 -12 -13 -14 16 17 -17 -18 19 -20 26 21 22 -24 -25 25 -27 -28 -29 -30 -31
leaf_value=0.066609562591489965 0.050878445955818488 0.070110978167962176 0.010761559211467691 0.095513934736436379 0.052578651896793116 0.058636762163286164 -0.01261325779967438 0.027084017830242963 -0.017246084958580873 -0.0040668577049577607 0.005417701370592734 -0.040015500885172382 -0.01228152269950224 0.0083482394278046983 0.05065640787499353 0.037398828647365483 -0.023211769174354479 0.040421699308648099 0.045890751918803513 0.0094909645133476397 0.15581285323680036 -0.057405098917614521 0.18850512107638764 0.12779183388512824 -0.053342263367588565 0.46541469248967354 0.032496755409877585 -0.0039202684143356736 -0.037537601969448074 0.098048236804917532
leaf_weight=19444.375119298697 2271.4576749652624 77.434380300343037 864.69879588857293 43.911915201693773 654.99266059696674 5800.339741140604 1686.698255289346 5795.6563215479255 961.57474066317081 37.39987014234066 1028.0778836607933 1418.20889255777 300.51486349478364 431.02949634194374 1257.5540815442801 967.84800408035517 298.43314649537206 2924.501640945673 2497.5522102713585 686.58017721772194 27.558699313551188 18.385259579867128 5.9552412778139105 12.904910542070864 3.0603997595608226 2.8377112820744514 1794.7589482814074 64.405978690832853 23.582679759711027 122.60929642245173
leaf_count=14328 3193 312 6008 349 1230 5663 21255 22842 15708 405 6032 28899 3199 4574 2391 3058 3457 6285 3863 2200 173 193 23 68 53 23 4509 796 202 508
internal_value=0.0442623 0.0223146 -0.00388156 -0.0134482 0.0340756 0.0630774 -0.00140307 0.0263385 -0.0265608 0.0167362 0.0238197 -0.0294036 0.0196015 0.00752374 0.0405519 0.0248299 0.00132123 0.0370317 0.0548004 0.0338622 0.0164818 0.0840318 0.00276025 -0.0140525 -0.0159446 0.196243 0.0261311 0.0363902 0.0598299 0.0741803
internal_weight=51524.9 23782.6 7369.05 5235.99 16413.6 27742.3 2729.09 7478.73 2506.9 1042.39 6823.73 2398.59 2133.06 858.796 8934.85 1832.55 781.362 6663.39 8297.89 5405.84 482.929 51.8992 24.3405 980.378 967.473 5.89811 2481.34 108.318 183.592 160.009
internal_count=161799 137945 89263 76998 48682 23854 31102 30104 45896 9847 28874 44751 12265 8732 18578 9066 8420 15385 9526 12994 4963 389 216 15852 15784 76 6709 1145 1115 913
is_linear=0
shrinkage=0.05


Tree=19
num_leaves=31
num_cat=0
split_feature=10 1 42 34 8 3 10 5 44 35 31 8 8 2 32 27 35 8 34 3 3 44 34 55 1 35 9 50 9 34
split_gain=7967.91 2604.26 607.698 374.756 364.661 419.012 364.622 350.026 326.44 255.418 195.901 152.004 143.467 171.582 138.122 200.766 155.57 135.552 188.179 132.139 123.153 179.647 110.375 109.787 108.944 109.614 131.435 101.17 100.403 99.2665
threshold=0.44680851065105259 6.5000000000000009 0.33073819722151482 0.999999999990834 0.27257053291536054 4.5000000000000009 0.96610169494377351 3.5000000000000004 0.60653870359857798 0.088235294117452415 -0.2138946819556666 0.57200460829493094 0.023866484392800154 5.5000000000000009 0.44530447503958587 104.50000000000001 -0.3333333333308332 0.0069687257187256513 0.10399669820371581 57.500000000000007 9.5000000000000018 0.60653870359857798 0.93693668660880591 0.10528905926232901 23.500000000000004 -0.18181818181694206 0.26927580616105212 1.0000000180025095e-35 0.47655677655677658 0.91405566404334404
decision_type=2 2 2 2 2 2 2 2 2 2 2 2 2 2 2 2 2 2 2 2 2 2 2 2 2 2 2 2 2 2
left_child=8 4 3 6 5 -2 11 10 -1 -4 -7 14 -11 -14 16 24 27 18 -10 -8 -12 -22 -23 28 25 -16 -27 -3 -18 -28
right_child=1 2 9 -5 -6 7 19 -9 17 12 20 -13 13 -15 15 -17 23 -19 -20 -21 21 22 -24 -25 -26 26 29 -29 -30 -31
leaf_value=0.064187062914822221 0.039835282894327251 0.024011006625066816 0.036277586539102014 0.076514569984188485 0.046253329470869652 0.026590126595904068 -0.016630805764541869 0.039573949841482742 -0.01370789293004876 -0.027196457550387139 0.016134716537625458 0.093336696318730261 0.028546772578225452 -0.024800602501293543 -0.032694648816080571 0.2035837219900333 -0.0073793209005986841 0.059511738707451058 0.048299870003264647 -0.039120228816777312 0.078330012203053481 -0.011523667521360428 0.024251690659389574 -0.033833085732677945 0.11919793056756381 -0.054923937933907645 0.1398114720918136 -0.016329318538016308 0.134875079816657 -0.054728274707959851
leaf_weight=19176.118366897106 4848.8324683606625 535.91040299087763 1057.087883297354 114.62505584955215 3563.7902004271746 2393.1703265532851 1298.3812484666705 1977.6471079662442 125.77861371636391 308.46798664331436 2153.8706297054887 41.814045086503029 530.32532822340727 210.57205627113581 81.175917018204927 16.796035405248404 960.82938122004271 3641.6763518303633 4493.7165670245886 1314.3346314579248 66.547100037336349 1294.0672109797597 258.69677197188139 529.48679202049971 24.724186681210995 18.760227438062429 35.180313419550657 218.90916772931814 12.566071178764103 8.0595434159040433
leaf_count=14328 9316 3230 3653 244 6511 7781 17677 5573 357 3713 8705 325 3814 2372 909 78 13814 3658 5511 28183 201 9124 1471 7994 221 262 333 2272 56 113
internal_value=0.042228 0.021106 -0.00373294 -0.0128932 0.0320848 0.0281985 -0.0149039 0.0212702 0.0606074 0.0189305 0.0153998 -0.00118915 0.00145567 0.0133848 -0.00280744 0.0387642 -0.0062083 0.0522982 0.0466115 -0.0279442 0.00830232 -0.00211567 -0.00556335 -0.0155099 0.0222763 0.0055395 0.055599 0.0123117 -0.00554288 0.103551
internal_weight=51311.9 23874.6 7318.01 5211.55 16556.6 12992.8 5096.93 8144 27437.3 2106.45 6166.35 2484.21 1049.37 740.897 2442.4 184.696 2257.7 8261.17 4619.5 2612.72 3773.18 1619.31 1552.76 1502.88 167.9 143.176 62.0001 754.82 973.395 43.2399
internal_count=161799 137945 89263 75711 48682 42171 75467 32855 23854 13552 27282 29607 9899 6186 29282 1916 27366 9526 5868 45860 19501 10796 10595 21864 1838 1617 708 5502 13870 446
is_linear=0
shrinkage=0.05


Tree=20
num_leaves=31
num_cat=0
split_feature=10 0 10 8 0 44 42 5 0 34 38 8 39 39 34 24 46 8 41 41 0 53 46 53 53 37 34 42 55 39
split_gain=7081.43 2487.76 568.135 378.448 457.201 361.418 341.958 299.927 238.194 220.486 196.801 156.99 187.327 145.159 119.467 110.596 142.635 147.393 211.995 117.118 108.583 106.367 100.519 101.614 114.469 131.989 152.004 115.684 100.483 96.7215
threshold=0.46860923424744633 9.5000000000000018 0.79411764708371757 0.27257053291536054 1.5000000000000002 0.5959140239247479 0.40824829045927025 4.5000000000000009 4.5000000000000009 0.999999999990834 143.01652526855472 0.069335546271390117 -0.51353380704616314 -0.52173913043279763 0.9999581103916485 22.500000000000004 0.24062353492695729 0.55572808833678411 1.3697835206985476 0.16608511656522748 279.50000000000006 0.46552698227157613 0.74999999999656264 0.28566237541528244 0.28054927099044746 3.9999999997000004 0.77758139484486677 0.81818181817066127 0.35519905209575703 -2.3915887849730582
decision_type=2 2 2 2 2 2 2 2 2 2 2 2 2 2 2 2 2 2 2 2 2 2 2 2 2 2 2 2 2 2
left_child=5 3 -3 4 -2 -1 9 8 14 10 15 12 -7 -8 21 16 20 19 -19 -18 -4 -6 23 24 25 -15 -27 -28 29 -10
right_child=1 2 6 -5 7 11 13 -9 28 -11 -12 -13 -14 22 -16 -17 17 18 -20 -21 -22 -23 -24 -25 -26 26 27 -29 -30 -31
leaf_value=0.062023017485674563 0.03952797737577711 0.02110584847589031 -0.025644106181465533 0.043926730643601239 0.020856502882717454 0.01932781470483359 0.048820560408707296 0.041560914391725046 0.087670517314817967 0.063616448339198592 0.11919219186521973 0.057336970992914321 0.047713082067009527 -0.015404439085436913 0.033769468244973955 -0.031461415140598234 0.048488827114181912 -0.054947528505152769 0.35467207352008567 -0.0092801856069295915 0.27951727848603747 -0.0014488741384352053 0.074735180672809404 -0.029117562185879423 0.26608199914344371 -0.037419585969858025 0.14873757720424996 -0.056488245601272281 -0.041567204481352614 0.0041128688360764091
leaf_weight=18407.810244873166 4413.2318774610758 1368.8466817066073 1078.7774429619312 3863.702915892005 3546.8503425866365 670.51670934259892 229.53703454881907 1383.1841927096248 35.182700149714947 74.721800774335861 24.143293105065823 3858.6353220194578 4365.4018786996603 141.44623535871506 1544.8510992527008 2154.4250916913152 109.88971506431699 5.6528036855161172 7.1589343138039112 435.18302896618843 2.9229312986135474 629.30669713020325 41.999043174088001 233.35157568380237 4.5614822618663302 23.822210066020489 42.605074215680361 8.1860824413597566 119.84568943828344 2216.7307957410812
leaf_count=13922 7957 8186 19798 7568 13198 1452 876 4350 58 183 108 3857 5134 1466 3882 38287 1527 78 28 6327 20 2699 170 2577 25 220 226 91 963 16325
internal_value=0.0406579 0.0206858 -0.0071853 0.0300855 0.0262351 0.0580242 -0.0155705 0.0200442 0.0163667 -0.021444 -0.0231087 0.0497483 0.0439337 0.015945 0.0218898 -0.0240142 -0.0142286 0.00630652 0.173939 0.00236637 -0.0248195 0.0174953 0.000730175 -0.00611636 0.0182121 0.012979 0.0667862 0.115661 0.00304414 0.00541833
internal_weight=51042.5 23740.1 5987.23 17752.9 13889.2 27302.4 4618.38 9475.95 8092.77 3892.88 3818.15 8894.55 5035.92 725.509 5721.01 3794.01 1639.58 557.884 12.8117 545.073 1081.7 4176.16 495.972 453.973 220.621 216.06 74.6134 50.7912 2371.76 2251.91
internal_count=161558 137193 80193 57000 49432 24365 72007 41475 37125 66356 66173 10443 6586 5651 19779 66065 27778 7960 106 7854 19818 15897 4775 4605 2028 2003 537 317 17346 16383
is_linear=0
shrinkage=0.05


Tree=21
num_leaves=31
num_cat=0
split_feature=10 0 44 8 6 10 0 5 44 48 8 41 2 53 37 44 8 32 0 2 8 35 4 24 27 33 61 33 59 39
split_gain=6687.31 2190.02 653.44 311.67 296.919 293.614 288.5 285.139 264.596 257.006 182.057 158.699 157.625 152.418 152.688 147.195 146.374 142.593 138.867 120.094 160.643 112.766 110.703 110.396 109.707 107.699 106.136 135.618 128.291 103.44
threshold=0.40000000000466668 6.5000000000000009 0.787386888860937 0.27257053291536054 2.5000000000000004 0.94285714288251044 1.5000000000000002 3.5000000000000004 0.57605973167608493 0.99999999997750011 0.023866484392800154 0.0066328421235084005 5.5000000000000009 0.23396440516005726 3.0833333333140631 0.698309561663772 1.0000000180025095e-35 0.54689970804757715 19.500000000000004 1.5000000000000002 0.012861869313482202 3.8257575757082765 23.500000000000004 41.500000000000007 104.50000000000001 0.024593331615746054 0.95548320807884102 0.96067128878413499 0.029773228278494202 -0.9981343283409847
decision_type=2 2 2 2 2 2 2 2 2 2 2 2 2 2 2 2 2 2 2 2 2 2 2 2 2 2 2 2 2 2
left_child=8 3 9 6 -4 17 -2 11 -1 -3 -11 -8 13 14 -12 21 29 19 -7 22 -21 -13 -6 25 -19 -24 28 -28 -17 -10
right_child=1 2 4 -5 5 18 7 -9 16 10 12 15 -14 -15 -16 26 -18 24 -20 20 -22 -23 23 -25 -26 -27 27 -29 -30 -31
leaf_value=0.060227396823996665 0.03698275860104383 0.024989279352431636 0.063335402175605807 0.043377231857378344 -0.0049075089223519991 -0.01414973158123955 0.029247590422770149 0.03857651394488585 0.01576286760756861 -0.033748880606353962 0.02534603670178974 0.028385265580964922 -0.025215769596737353 -0.00084842700354178255 0.10641326414283639 0.012643741022380351 0.056631559452501673 0.03508342127477998 -0.037652611049167638 -0.034207933966741627 0.0012040926663872584 -0.04908975568144304 0.36391604629096158 0.010806795136325417 0.18519411065269126 0.10899139470728843 0.016994094439400923 0.094196226158993701 -0.0079334295047187621 0.045390631626496925
leaf_weight=17449.533468753099 4683.6101716905832 2299.900388263166 122.37633493542671 3732.6396269798279 67.356027573347092 1167.6740947552025 1809.3669975996017 1905.6485191807151 316.78364187479019 353.96516011282802 186.21089215576649 1332.4198544919491 236.02590621635318 306.7241502404213 84.414306748658419 1658.1277676522732 3795.4908301979303 100.88344706222415 1361.0694070160389 432.61193411424756 1233.1505969688296 48.683343283832073 4.6884620413184157 29.066538531333208 13.841737933456896 35.620052263140678 302.46115320920944 70.061729498207569 1394.5217142552137 4206.5927025675774
leaf_count=13211 8488 10529 246 6373 720 15299 4725 4638 639 4956 1504 4787 3137 2750 362 7640 3557 976 30665 6104 15236 398 28 324 40 323 1423 215 7382 4883
internal_value=0.0388598 0.0204215 -0.00107532 0.0306201 -0.0134969 -0.0156117 0.0270141 0.0215349 0.0567291 0.015291 -0.00381656 0.0166261 0.0092094 0.0232827 0.0506328 0.0118746 0.0493911 -0.000854955 -0.0267999 -0.0042951 -0.0079927 0.0256543 0.0407519 0.0850825 0.0531945 0.138643 0.00631828 0.0315138 0.00324361 0.0433157
internal_weight=50741.5 24973.1 8035.58 16937.5 4568.34 4445.96 13204.9 8521.29 25768.4 3467.24 1167.34 6615.64 813.375 577.349 270.625 4806.28 8318.87 1917.22 2528.74 1802.49 1665.76 1381.1 136.731 69.3751 114.725 40.3085 3425.17 372.523 3052.65 4523.38
internal_count=161558 139268 93199 46069 69961 69715 39696 31208 22290 23238 12709 26570 7753 4616 1866 21845 9079 23751 45964 22735 21340 5185 1395 675 1016 351 16660 1638 15022 5522
is_linear=0
shrinkage=0.05


Tree=22
num_leaves=31
num_cat=0
split_feature=10 1 46 7 1 44 5 43 57 28 7 5 3 40 3 5 3 3 39 45 55 38 5 2 41 41 7 7 53 39
split_gain=6311.35 1983.95 570.308 295.352 283.472 266.917 246.572 206.55 214.993 169.066 146.212 168.304 181.804 137.311 126.96 124.137 122.594 118.837 117.987 117.013 139.59 113.021 111.145 113.131 120.804 106.094 101.694 125.199 94.5574 90.1717
threshold=0.40000000000466668 7.5000000000000009 0.33333333333009257 0.27032826818234551 3.5000000000000004 0.57605973167608493 4.5000000000000009 0.53549396991729747 4.0606201195521034 0.63667329801753458 0.1629310221125285 2.5000000000000004 3.5000000000000004 1.0000000180025095e-35 428.50000000000006 2.5000000000000004 205.50000000000003 43.500000000000007 0.29999999999914095 0.61335349082946788 0.36370120606925177 143.01652526855472 2.5000000000000004 1.5000000000000002 0.044295080006122554 10.807126998901369 0.93931022936547814 0.94749373433583972 0.49566470367121923 -0.10553255636036524
decision_type=2 2 2 2 2 2 2 2 2 2 2 2 2 2 2 2 2 2 2 2 2 2 2 2 2 2 2 2 2 2
left_child=5 4 3 7 10 -1 21 13 18 -4 -2 12 -12 -3 17 -7 -11 26 19 20 25 22 23 -6 -25 29 -5 -28 -8 -9
right_child=1 2 9 14 6 15 28 8 -10 16 11 -13 -14 -15 -16 -17 -18 -19 -20 -21 -22 -23 -24 24 -26 -27 27 -29 -30 -31
leaf_value=0.058297882723314154 0.041210975024081276 0.068882436866275598 0.02402619255564397 -0.013923622308380533 0.012414513737429956 0.042170911209156253 0.039584354594319499 -0.057024086654613129 -0.0082798692044674504 -0.0069761648933316066 0.034954031184897837 0.038946037483651837 0.01843285266664001 -0.018876309420716966 0.13596350431769039 0.054617400558433338 0.058355330680486921 -0.033175494628180584 0.0049194013995464657 0.14077674282693872 0.36810915015339801 0.062543974406057037 0.017935682697804555 0.026910109949558492 -0.022649433036264665 0.10725635864192802 0.38049741839805795 0.042085375378128204 -0.0022132089769057485 0.056025694023043339
leaf_weight=17133.773746103048 3082.1696712747216 48.294139266014099 1574.5041606836021 997.39477132260799 958.35588854551315 4815.0667769908905 1347.2596406005323 30.126164689660072 181.11244054883718 950.57024929299951 2662.471704736352 2881.8380626440048 4445.5112271159887 578.36983244866133 12.220891807228325 3430.6090786606073 77.673751275986433 1823.0011721625924 63.477284755557775 60.654353935271502 3.4711483344435683 105.78252290189266 2091.216060128063 152.21566449850798 639.76885295286775 44.410670854151249 3.3907057121396091 14.091086409986017 150.4182812422514 42.554633192718029
leaf_count=13211 5363 157 11085 11827 6095 5831 3792 398 2306 7852 4668 5320 14016 10474 94 3248 352 37383 727 469 25 361 9403 652 5155 154 28 127 573 412
internal_value=0.0371724 0.0193533 -0.00439994 -0.0164901 0.0276982 0.0547407 0.0181127 0.00614541 0.0330167 0.0137281 0.0316909 0.0287536 0.0246213 -0.0121131 -0.0248488 0.0473493 -0.00204101 -0.0255413 0.0635827 0.0841314 0.0556335 0.0115589 0.0101549 0.000858839 -0.0131243 0.0463703 -0.0118282 0.107723 0.0353864 0.0091666
internal_weight=50401.8 25022.3 6505.32 3902.57 18517 25379.4 5445.02 1052.47 425.807 2602.75 13072 9989.82 7107.98 626.664 2850.1 8245.68 1028.24 2837.88 244.694 181.217 120.563 3947.34 3841.56 1750.34 791.985 117.091 1014.88 17.4818 1497.68 72.6808
internal_count=161558 139268 83870 64581 55398 22290 26031 15122 4491 19289 29367 24004 18684 10631 49459 9079 8204 49365 2185 1458 989 21666 21305 11902 5807 964 11982 155 4365 810
is_linear=0
shrinkage=0.05


Tree=23
num_leaves=31
num_cat=0
split_feature=10 1 42 8 44 37 41 5 48 34 1 3 8 38 53 8 8 56 2 3 46 25 7 30 42 3 33 38 9 3
split_gain=5965.07 1788.97 562.237 283.649 269.509 265.068 245 259.608 181.538 171.381 148.436 139.711 178.585 181.985 136.185 134.776 132.696 192.907 144.418 129.68 115.226 132.793 114.455 113.617 112.796 111.341 110.745 96.639 95.539 95.0153
threshold=0.40000000000466668 5.5000000000000009 0.27039505285176518 0.27257053291536054 0.57605973167608493 1.0000000180025095e-35 0.0066328421235084005 3.5000000000000004 0.99999999998166678 0.999999999990834 2.5000000000000004 249.50000000000003 0.14299530256977064 -0.29896983504295344 0.24677405927405929 1.0000000180025095e-35 0.023866484392800154 0.2893101077063342 5.5000000000000009 57.500000000000007 0.24999999999531253 9.5000000000000018 0.32094158835452369 0.33344233703945936 0.57142857142244907 14.500000000000002 0.25230052743799797 274.24967956542974 0.57417582417582425 257.50000000000006
decision_type=2 2 2 2 2 2 2 2 2 2 2 2 2 2 2 2 2 2 2 2 2 2 2 2 2 2 2 2 2 2
left_child=4 3 5 6 -1 9 -2 10 24 11 23 14 13 22 20 -6 -10 18 -18 28 -3 -22 26 -8 -4 -11 -13 -20 -7 -24
right_child=1 2 8 -5 15 19 7 -9 16 25 -12 12 -14 -15 -16 -17 17 -19 27 -21 21 -23 29 -25 -26 -27 -28 -29 -30 -31
leaf_value=0.056486153350633318 0.033535562435712422 -0.017865509056491126 0.017109391007456475 0.040040433974880996 0.039552806396238038 -0.014705094650005277 0.026201871991229891 0.036379429567515983 -0.03333816997336831 -0.038128879721953529 0.0058317391431544074 0.58211093872825681 -0.0054292707546360524 0.011556221365508847 -0.017324681692350682 0.05245089324126842 0.039681225530762906 -0.034806072548300926 -0.033365687281867673 -0.04039306408848322 0.014084257143003841 0.14968188080772857 0.34391220043716908 0.0069103469610040866 0.049790584345600242 0.073839799061617584 0.23181761275576976 0.084586694360617498 0.26514081587390581 0.054844994505055603
leaf_weight=16807.489671096206 4645.6790669932961 337.72881957516074 2414.9460203684866 3683.5798607170582 4456.0789877474308 922.13229620456696 2835.2739966511726 1745.166950777173 281.1735459305346 27.71677066385746 2755.0869672298431 3.0830371715128448 65.787180695682764 21.631556201726198 1514.0025965087116 3712.93296033144 374.29032486304641 199.18555646017194 133.0596194639802 905.92277790978551 687.12709150463343 18.542823579162359 3.6664453186094788 1044.3499123454094 296.42975397408009 111.59918143600225 8.4142810776829702 19.971594661474228 3.0600013658404341 12.653318885713814
leaf_count=13211 8944 5661 12246 6100 5522 12724 7289 3903 4192 111 14327 16 942 323 21639 3557 2800 2345 1940 21774 7616 87 20 3162 640 184 47 100 17 119
internal_value=0.0355707 0.0183416 -0.000538406 0.0277901 0.0528652 -0.0121418 0.0243258 0.01922 0.0139479 -0.00250129 0.0147065 -0.00531952 0.0485349 0.12033 -0.00774619 0.0454152 -0.00417263 0.00711505 0.02295 -0.0269463 0.00615249 0.0176473 0.204916 0.0210088 0.0206824 0.0515637 0.32575 -0.0179721 -0.0137795 0.119788
internal_weight=50047.8 25071.3 8362.12 16709.1 24976.5 4643.07 13025.6 8379.88 3719.06 2811.95 6634.71 2672.64 115.236 49.4486 2557.4 8169.01 1007.68 726.507 527.322 1831.12 1043.4 705.67 27.8171 3879.62 2711.38 139.316 11.4973 153.031 925.192 16.3198
internal_count=161558 139268 95543 43725 22290 71280 37625 28681 24263 36765 24778 36470 1467 525 35003 9079 11377 7185 4840 34515 13364 7703 202 10451 12886 295 63 2040 12741 139
is_linear=0
shrinkage=0.05


Tree=24
num_leaves=31
num_cat=0
split_feature=10 1 46 3 3 8 0 8 5 8 28 39 3 11 33 48 41 47 32 38 3 3 32 48 32 5 39 1 17 17
split_gain=5637.44 1601.7 476.822 337.314 260.1 258.077 231.768 210.926 191.843 177.019 136.245 133.414 131.184 131.352 120.258 118.573 115.652 108.178 111.322 101.874 96.2643 96.1732 95.9865 95.0508 94.4844 108.569 192.27 132.764 116.594 228.974
threshold=0.40000000000466668 5.5000000000000009 0.33333333332499998 57.500000000000007 1.5000000000000002 0.27257053291536054 1.5000000000000002 0.028208800827564204 3.5000000000000004 0.0080972987149226013 0.63667329801753458 -0.44286205223514274 428.50000000000006 7.5000000000000009 0.25230052743799797 0.71428571427806131 0.0066328421235084005 0.87078869342803966 0.49298232445761697 981.77084350585949 18.500000000000004 343.50000000000006 0.40957278868991387 0.16666666666458327 0.41799026458993549 3.5000000000000004 0.36585365853546997 11.500000000000002 -0.39941613499999995 -0.42943160999999991
decision_type=2 2 2 2 2 2 2 2 2 2 2 2 2 2 2 2 2 2 2 2 2 2 2 2 2 2 2 2 2 2
left_child=4 5 3 7 -1 6 -2 20 16 11 15 -6 13 19 -14 22 -8 18 -18 23 -3 -12 -4 24 25 26 27 -5 29 -27
right_child=1 2 10 12 9 -7 8 -9 -10 -11 21 -13 14 -15 -16 -17 17 -19 -20 -21 -22 -23 -24 -25 -26 28 -28 -29 -30 -31
leaf_value=0.05630427253788145 0.031867095906201841 0.0094581000313910795 0.020848125773195461 0.40106871508908448 0.015357382796412411 0.037975953144486041 0.024655117571564189 0.011299518368272728 0.032369045618451997 0.052724047004480912 -0.0011880415436210543 0.042604220658272324 0.20036258450218752 0.10726413113510036 0.0072160682284497651 -0.0087489960856595595 -0.00052304147651327634 0.021709273342850614 0.020044414579469903 0.10371137685413141 -0.026011116990841184 0.092394475997781819 0.055553144509409846 -0.039908209542237429 0.047722341380735639 -0.017214965911721721 0.40727394758954827 0.0042939291292827314 -0.038133836220400674 0.27348952090097528
leaf_weight=12124.617665216327 4716.3340703696012 252.24089426919818 1765.7686677910388 2.1565387807786456 482.82462602853775 3689.4710178077221 1837.6299705803394 1643.2074351459742 1819.5851013362408 5489.039551705122 1399.7466045729816 6465.1429372131824 11.357164394110439 17.464822981506586 27.750522036105394 304.28781271725893 2441.8979553952813 1368.1195792406797 900.51608330011368 14.032432094216345 791.71227994933724 28.003175314515829 224.57409515604377 1193.0642639026046 53.157968550920486 27.298257045447826 3.197375811636447 94.26431480050087 462.28358254209161 9.0091110281646234
leaf_count=9330 8488 2277 10250 15 905 6100 4629 15073 4135 4966 10397 7089 83 194 314 3330 11674 4758 3941 42 12053 52 906 28508 793 488 32 1731 8896 109
internal_value=0.0340636 0.0173982 -0.000531411 -0.0112935 0.0510931 0.0262965 0.0230031 0.000133915 0.0180071 0.0460128 0.0127743 0.0407108 -0.0273282 -0.0292177 0.0633073 0.0203199 0.0140163 0.00986597 0.00501826 -0.0305003 -0.017441 0.000647439 0.024764 -0.0315214 -0.0161598 -0.0218365 0.0258175 0.0131682 -0.0313577 0.0549188
internal_weight=49659.8 25098.1 8324.58 4602.2 24561.6 16773.6 13084.1 2687.16 8367.75 12437 3722.38 6947.97 1915.04 1875.93 39.1077 2294.63 6548.16 4710.53 3342.41 1858.46 1043.95 1427.75 1990.34 1844.43 651.367 598.209 99.6182 96.4209 498.591 36.3074
internal_count=161558 139268 95543 70608 22290 43725 37625 29403 29137 12960 24935 7994 41205 40808 397 14486 25002 20373 15615 40614 14330 10449 11156 40572 12064 11271 1778 1746 9493 597
is_linear=0
shrinkage=0.05


Tree=25
num_leaves=31
num_cat=0
split_feature=10 0 10 1 8 44 8 41 38 8 47 41 53 60 8 42 11 21 51 31 0 44 32 47 32 49 2 22 60 53
split_gain=5529.64 1278.98 688.983 348.963 231.814 229.283 173.27 145.808 141.599 130.216 119.69 129.354 106.715 106.554 102.892 101.954 101.807 154.155 91.8536 90.8191 89.8583 105.595 80.9424 76.5792 116.042 94.3605 128.923 118.189 90.9975 168.548
threshold=0.36842105264240538 4.5000000000000009 0.79411764708371757 17.500000000000004 0.14263110307414104 0.57605973167608493 0.36382655001901865 0.086003594100475311 143.01652526855472 0.066797900262467166 0.87417399883270275 11.904064655303957 0.44449296458030085 1.8333333332055559 0.032345248474280705 0.4762896722048634 8.5000000000000018 0.38982932500000006 -1.5 0.17999999999838004 27.500000000000004 0.5147348728648139 0.77121410610471719 0.48375928401947027 -0.8359414707394256 0.96772238612174999 2.5000000000000004 -0.56906059999999992 11.583333332851391 0.3503022499817372
decision_type=2 2 2 2 2 2 2 2 2 2 2 2 2 2 2 2 2 2 2 2 2 2 2 2 2 2 2 2 2 2
left_child=5 6 9 4 12 -1 7 -2 -6 13 11 -9 23 -3 18 16 -5 -18 -7 -20 -14 -22 -17 25 -25 26 27 -4 -28 -30
right_child=1 2 3 15 8 14 -8 10 -10 -11 -12 -13 20 -15 -16 22 17 -19 19 -21 21 -23 -24 24 -26 -27 28 -29 29 -31
leaf_value=0.053335669513514344 0.029780622524931546 0.023521934613369204 0.31153197927235743 -0.029935810401858606 0.010101467101732807 0.01518741557336597 0.039144922613671945 0.011428537744224185 0.061717325181714112 0.029771444847671125 0.027131795136636994 0.03796207420446486 -0.027150917916158736 -0.0056963793920023625 0.04943200761087619 0.047785625733515046 0.0048186642125114011 0.42296221164569481 0.044022199673059911 0.024967841589874692 0.72925668059752713 0.067011646812175238 -0.030235141573437319 0.030340709658083345 -0.018369641167955891 -0.0051039593019153572 -0.016070696299222659 0.038066365062174076 0.2405542142244384 -0.055780593321324415
leaf_weight=16175.347400739789 5556.9006689712405 640.33782136812806 4.0008115060627452 1566.6419089436531 1960.0652538686991 415.34040653705597 2075.2230953425169 4267.9175865352154 142.53415382280946 2046.3646530583501 2919.4002561867237 514.73264944553375 710.19686396420002 608.60221112146974 3192.6178465932608 81.559889435768127 7.7341808155179006 3.0827353745698929 2942.8395035564899 794.10702119767666 0.62668722867965598 15.235789999365805 56.113811697810888 138.86436371877789 1023.0216748788953 945.66447189822793 220.50170018523932 317.50309994071722 9.9314422309398669 9.2840422503650171
leaf_count=13188 10711 3253 16 35242 13451 748 3096 14037 377 7303 6865 1287 8946 3673 3053 588 102 20 3167 1137 1 204 688 1108 12225 10607 3161 3353 72 135
internal_value=0.0324677 0.0165024 0.0030651 -0.00558896 0.000554088 0.0500091 0.0257104 0.0236077 0.0136005 0.0220066 0.019154 0.0142842 -0.00752624 0.009284 0.042683 -0.025279 -0.0288803 0.123986 0.0374939 0.0399731 -0.0245221 0.0931753 0.0159855 -0.00290238 -0.012548 0.00453485 0.0207764 0.0414694 -0.0069767 0.0973788
internal_weight=49362.3 25842 10507.9 7212.56 5497.43 23520.3 15334.2 13259 2102.6 3295.3 7702.05 4782.65 3394.83 1248.94 7344.9 1715.13 1577.46 10.8169 4152.29 3736.95 726.059 15.8625 137.674 2668.77 1161.89 1506.89 561.221 321.504 239.717 19.2155
internal_count=161814 140521 104525 90296 53656 21293 35996 32900 13828 14229 22189 15324 39828 6926 8105 36640 35364 122 5052 4304 9151 205 1276 30677 13333 17344 6737 3369 3368 207
is_linear=0
shrinkage=0.05


Tree=26
num_leaves=31
num_cat=0
split_feature=10 1 10 3 8 44 39 5 3 8 10 54 7 47 41 8 8 42 3 51 28 56 28 35 32 2 32 54 11 28
split_gain=5236.7 1152.82 625.525 402.659 263.457 229.895 194.748 177.983 224.969 131.874 120.837 108.96 101.236 107.902 106.513 101.05 97.6171 91.6164 87.4123 85.4999 84.9955 121.883 105.557 84.6437 84.3275 85.5466 134.009 110.813 89.9141 93.7387
threshold=0.36842105264240538 3.5000000000000004 0.79411764708371757 57.500000000000007 0.081421656319057109 0.57605973167608493 -0.78947368420689057 2.5000000000000004 2.5000000000000004 0.066797900262467166 0.96879426348721531 0.097748584945509823 0.33886593204775023 0.96472540497779846 0.14368833601474762 0.13210380191512269 0.032345248474280705 0.61721339984175483 106.50000000000001 -1.5 0.96430694751146617 0.30061773671781267 0.99460187950754009 0.19444444444421938 0.41799026458993549 1.5000000000000002 -0.51883532814966504 0.24818713282568272 6.5000000000000009 0.80016920473773279
decision_type=2 2 2 2 2 2 2 2 2 2 2 2 2 2 2 2 2 2 2 2 2 2 2 2 2 2 2 2 2 2
left_child=5 7 9 4 12 -1 17 8 -2 18 24 -10 13 14 -4 -9 19 -5 -3 -7 -16 -22 -23 -21 25 26 -8 -28 -27 -30
right_child=1 2 3 6 -6 16 10 15 11 -11 -12 -13 -14 -15 20 -17 -18 -19 -20 23 21 22 -24 -25 -26 28 27 -29 29 -31
leaf_value=0.051796310821170949 0.03578324345360729 0.0048824084197982521 0.037315802109856633 0.008937762870287717 0.01346401827203512 0.014450339465215893 0.3545838365749871 0.024136372919896905 0.02121359250738139 0.028471430433220053 -0.036881273268380275 0.00738289915149388 -0.012247063553592188 0.086690678533732857 -0.015803346419063505 0.040460393205151976 0.047679451581195458 0.095928386440443658 0.042716278805527849 0.042333541062232305 -0.02185128240860032 0.22161811194424788 0.021618781742808943 0.023870297813343485 0.043102527053339203 -0.021770012294794895 -0.0086304443842048131 0.34596620821833318 -0.05589091913274763 0.32172498418856382
leaf_weight=15832.054377004504 2237.3403101414442 1294.1923514455557 178.61802035197616 135.15398143231869 3053.9545566253364 414.71582713723183 3.5910321325063732 1518.9625466316938 5662.4557204395533 2336.3421950489283 1171.9765766039491 1902.4816920980811 2357.0346922129393 42.518452696502209 413.79142379015684 2522.208738848567 3145.6752706766129 39.00097618997097 173.08715871348977 2908.1095003038645 28.173963129520416 14.026896838098764 12.455735441297293 789.21566161513329 65.031107649207115 669.3395156674087 21.759509574621919 2.4514555111527434 2.8498311825096598 3.8823611885309219
leaf_count=13188 3166 6953 1041 1555 17777 748 22 3543 14770 7802 29470 5556 25590 204 4379 3402 3053 30 850 3167 313 65 126 1137 884 12596 352 17 46 12
internal_value=0.0311107 0.0156587 0.00432952 -0.00343174 0.00308593 0.0484183 -0.0222312 0.0254949 0.0218547 0.0210934 -0.026776 0.0177354 -0.00731715 0.00953356 0.00446359 0.0343247 0.0410496 0.0284188 0.00934547 0.0359778 -0.00806287 0.0505384 0.127551 0.0383925 -0.0113735 -0.0164065 0.0695507 0.0272739 -0.0199413 0.161875
internal_weight=48952.5 25862.7 12019.2 8215.61 6100.57 23089.8 2115.04 13843.4 9802.28 3803.62 1940.88 7564.94 3046.62 689.584 647.066 4041.17 7257.72 174.155 1467.28 4112.04 468.448 54.6566 26.4826 3697.33 768.905 703.874 27.802 24.211 676.072 6.73219
internal_count=161814 140521 110084 94479 49495 21293 44984 30437 23492 15605 43399 20326 31718 6128 5924 6945 8105 1585 7803 5052 4883 504 191 4304 13929 13045 391 369 12654 58
is_linear=0
shrinkage=0.05


Tree=27
num_leaves=31
num_cat=0
split_feature=10 0 46 3 44 8 8 5 3 10 40 59 31 4 37 30 40 5 8 38 8 3 9 61 22 1 42 7 31 38
split_gain=4955.65 1040.57 570.571 291.778 230.098 200.223 173.734 162.853 238.801 119.763 130.424 116.866 101.998 149.559 120.396 98.1824 93.5744 115.226 92.8902 86.356 83.776 81.4243 81.391 96.5712 79.062 82.965 78.9571 78.5667 78.3645 76.3493
threshold=0.36842105264240538 4.5000000000000009 0.42635004821534478 57.500000000000007 0.57605973167608493 0.13210380191512269 0.0069687257187256513 2.5000000000000004 2.5000000000000004 0.92727272730270915 0.91666666665347241 0.030303030303017953 -0.4999999999922618 8.5000000000000018 0.99152542367798058 0.51854497354497364 0.50882816167429534 2.5000000000000004 0.11433239962651721 -0.81555268168449391 0.73226861167002022 1.0000000180025095e-35 0.077677224736048267 1.0310506852498318 -0.59720142999999981 9.5000000000000018 0.59999999998200015 0.17656336982742624 0.39473684210058874 143.01652526855472
decision_type=2 2 2 2 2 2 2 2 2 2 2 2 2 2 2 2 2 2 2 2 2 2 2 2 2 2 2 2 2 2
left_child=4 7 3 5 21 11 -4 8 -2 20 -11 -3 15 27 22 -10 17 28 -9 -12 -5 -1 -15 -24 -13 -26 -8 -14 -6 -7
right_child=1 2 6 9 16 29 26 18 12 10 19 24 13 14 -16 -17 -18 -19 -20 -21 -22 -23 23 -25 25 -27 -28 -29 -30 -31
